<?xml version="1.0" ?>

<BIF VERSION="0.3">
<NETWORK>
<NAME>unnamedBN</NAME>
<PROPERTY>software aGrUM</PROPERTY>

<!-- Variables -->
<VARIABLE TYPE="nature">
	<NAME>location0</NAME>
	<PROPERTY></PROPERTY>
	<OUTCOME>v10</OUTCOME>
	<OUTCOME>v11</OUTCOME>
	<OUTCOME>v2</OUTCOME>
	<OUTCOME>v7</OUTCOME>
</VARIABLE>

<VARIABLE TYPE="nature">
	<NAME>wire_at_v20</NAME>
	<PROPERTY></PROPERTY>
	<OUTCOME>no</OUTCOME>
	<OUTCOME>unknown</OUTCOME>
</VARIABLE>

<VARIABLE TYPE="nature">
	<NAME>wire_at_v2t</NAME>
	<PROPERTY></PROPERTY>
	<OUTCOME>no</OUTCOME>
	<OUTCOME>unknown</OUTCOME>
	<OUTCOME>yes</OUTCOME>
</VARIABLE>

<VARIABLE TYPE="nature">
	<NAME>wire_at_v70</NAME>
	<PROPERTY></PROPERTY>
	<OUTCOME>no</OUTCOME>
	<OUTCOME>unknown</OUTCOME>
</VARIABLE>

<VARIABLE TYPE="nature">
	<NAME>wire_at_v7t</NAME>
	<PROPERTY></PROPERTY>
	<OUTCOME>no</OUTCOME>
	<OUTCOME>unknown</OUTCOME>
	<OUTCOME>yes</OUTCOME>
</VARIABLE>

<VARIABLE TYPE="nature">
	<NAME>wire_at_v100</NAME>
	<PROPERTY></PROPERTY>
	<OUTCOME>no</OUTCOME>
	<OUTCOME>unknown</OUTCOME>
</VARIABLE>

<VARIABLE TYPE="nature">
	<NAME>wire_at_v10t</NAME>
	<PROPERTY></PROPERTY>
	<OUTCOME>no</OUTCOME>
	<OUTCOME>unknown</OUTCOME>
	<OUTCOME>yes</OUTCOME>
</VARIABLE>

<VARIABLE TYPE="nature">
	<NAME>wire_at_v110</NAME>
	<PROPERTY></PROPERTY>
	<OUTCOME>no</OUTCOME>
	<OUTCOME>unknown</OUTCOME>
</VARIABLE>

<VARIABLE TYPE="nature">
	<NAME>wire_at_v11t</NAME>
	<PROPERTY></PROPERTY>
	<OUTCOME>no</OUTCOME>
	<OUTCOME>unknown</OUTCOME>
	<OUTCOME>yes</OUTCOME>
</VARIABLE>

<!-- Probability distributions -->
<DEFINITION>
	<FOR>location0</FOR>
	<TABLE>
		0.227049 0.253279 0.266393 0.253279
	</TABLE>
</DEFINITION>
<DEFINITION>
	<FOR>wire_at_v20</FOR>
	<TABLE>
		0.32623 0.67377
	</TABLE>
</DEFINITION>
<DEFINITION>
	<FOR>wire_at_v2t</FOR>
	<GIVEN>wire_at_v11t</GIVEN>
	<GIVEN>location0</GIVEN>
	<GIVEN>wire_at_v20</GIVEN>
	<GIVEN>wire_at_v110</GIVEN>
	<TABLE>
		0.998614 0.000693001 0.000693001
		0.998845 0.000577701 0.000577701
		0.873593 0.000865801 0.125541
		0.99846 0.000769823 0.000769823
		0.333333 0.333333 0.333333
		0.999466 0.00026688 0.00026688
		0.333333 0.333333 0.333333
		0.000231321 0.999537 0.000231321
		0.333333 0.333333 0.333333
		0.333333 0.333333 0.333333
		0.705426 0.000407997 0.294166
		0.00172712 0.00172712 0.996546
		0.998845 0.000577701 0.000577701
		0.996546 0.00172712 0.00172712
		0.399861 0.499653 0.100485
		0.99846 0.000769823 0.000769823
		0.333333 0.333333 0.333333
		0.998022 0.00098912 0.00098912
		0.333333 0.333333 0.333333
		0.000346861 0.999306 0.000346861
		0.333333 0.333333 0.333333
		0.333333 0.333333 0.333333
		0.333333 0.333333 0.333333
		0.333333 0.333333 0.333333
		0.333333 0.333333 0.333333
		0.333333 0.333333 0.333333
		0.333333 0.333333 0.333333
		0.999761 0.000119689 0.000119689
		0.333333 0.333333 0.333333
		0.999009 0.000495295 0.000495295
		0.333333 0.333333 0.333333
		0.00026688 0.999466 0.00026688
		0.333333 0.333333 0.333333
		0.995402 0.00229885 0.00229885
		0.333333 0.333333 0.333333
		0.333333 0.333333 0.333333
		0.333333 0.333333 0.333333
		0.99846 0.000769823 0.000769823
		0.333333 0.333333 0.333333
		0.998845 0.000577701 0.000577701
		0.333333 0.333333 0.333333
		0.333333 0.333333 0.333333
		0.333333 0.333333 0.333333
		0.993127 0.00343643 0.00343643
		0.333333 0.333333 0.333333
		0.993127 0.00343643 0.00343643
		0.333333 0.333333 0.333333
		0.333333 0.333333 0.333333
	</TABLE>
</DEFINITION>
<DEFINITION>
	<FOR>wire_at_v70</FOR>
	<TABLE>
		0.191803 0.808197
	</TABLE>
</DEFINITION>
<DEFINITION>
	<FOR>wire_at_v7t</FOR>
	<GIVEN>wire_at_v70</GIVEN>
	<GIVEN>location0</GIVEN>
	<GIVEN>wire_at_v11t</GIVEN>
	<GIVEN>wire_at_v2t</GIVEN>
	<TABLE>
		0.999075 0.000462321 0.000462321
		0.333333 0.333333 0.333333
		0.990868 0.00456621 0.00456621
		0.333333 0.333333 0.333333
		0.995402 0.00229885 0.00229885
		0.333333 0.333333 0.333333
		0.996928 0.0015361 0.0015361
		0.333333 0.333333 0.333333
		0.333333 0.333333 0.333333
		0.999289 0.000355745 0.000355745
		0.995402 0.00229885 0.00229885
		0.333333 0.333333 0.333333
		0.333333 0.333333 0.333333
		0.333333 0.333333 0.333333
		0.333333 0.333333 0.333333
		0.999075 0.000462321 0.000462321
		0.333333 0.333333 0.333333
		0.333333 0.333333 0.333333
		0.995402 0.00229885 0.00229885
		0.333333 0.333333 0.333333
		0.995402 0.00229885 0.00229885
		0.999159 0.000420345 0.000420345
		0.333333 0.333333 0.333333
		0.333333 0.333333 0.333333
		0.995402 0.00229885 0.00229885
		0.333333 0.333333 0.333333
		0.333333 0.333333 0.333333
		0.333333 0.333333 0.333333
		0.333333 0.333333 0.333333
		0.333333 0.333333 0.333333
		0.333333 0.333333 0.333333
		0.333333 0.333333 0.333333
		0.333333 0.333333 0.333333
		0.333333 0.333333 0.333333
		0.333333 0.333333 0.333333
		0.333333 0.333333 0.333333
		0.963973 0.000165262 0.0358618
		0.333333 0.333333 0.333333
		0.333333 0.333333 0.333333
		0.000660066 0.99868 0.000660066
		0.000257003 0.999486 0.000257003
		0.333333 0.333333 0.333333
		0.333333 0.333333 0.333333
		0.333333 0.333333 0.333333
		0.333333 0.333333 0.333333
		0.000355745 0.922448 0.0771967
		0.000165262 0.999669 0.000165262
		0.333333 0.333333 0.333333
		0.333333 0.333333 0.333333
		0.333333 0.333333 0.333333
		0.333333 0.333333 0.333333
		0.999159 0.000420345 0.000420345
		0.333333 0.333333 0.333333
		0.333333 0.333333 0.333333
		0.000462321 0.999075 0.000462321
		0.333333 0.333333 0.333333
		0.99868 0.000660066 0.000660066
		9.84737e-05 0.999803 9.84737e-05
		0.333333 0.333333 0.333333
		0.333333 0.333333 0.333333
		0.333333 0.333333 0.333333
		0.333333 0.333333 0.333333
		0.333333 0.333333 0.333333
		0.310356 0.000159566 0.689485
		0.998153 0.000923361 0.000923361
		0.990868 0.00456621 0.00456621
		0.999339 0.00033036 0.00033036
		0.999644 0.000177968 0.000177968
		0.333333 0.333333 0.333333
		0.995402 0.00229885 0.00229885
		0.333333 0.333333 0.333333
		0.333333 0.333333 0.333333
	</TABLE>
</DEFINITION>
<DEFINITION>
	<FOR>wire_at_v100</FOR>
	<TABLE>
		0.12623 0.87377
	</TABLE>
</DEFINITION>
<DEFINITION>
	<FOR>wire_at_v10t</FOR>
	<GIVEN>wire_at_v2t</GIVEN>
	<GIVEN>location0</GIVEN>
	<GIVEN>wire_at_v11t</GIVEN>
	<GIVEN>wire_at_v7t</GIVEN>
	<GIVEN>wire_at_v100</GIVEN>
	<TABLE>
		0.333333 0.333333 0.333333
		4.17032e-05 4.17032e-05 0.999917
		0.333333 0.333333 0.333333
		0.333333 0.333333 0.333333
		0.333333 0.333333 0.333333
		0.996928 0.0015361 0.0015361
		0.333333 0.333333 0.333333
		0.333333 0.333333 0.333333
		0.333333 0.333333 0.333333
		0.999559 0.000220313 0.000220313
		0.333333 0.333333 0.333333
		0.333333 0.333333 0.333333
		0.333333 0.333333 0.333333
		0.998973 0.000513611 0.000513611
		0.333333 0.333333 0.333333
		0.333333 0.333333 0.333333
		0.333333 0.333333 0.333333
		0.333333 0.333333 0.333333
		0.333333 0.333333 0.333333
		0.000118666 0.000118666 0.999763
		0.333333 0.333333 0.333333
		0.000128551 0.999743 0.000128551
		0.996928 0.0015361 0.0015361
		0.333333 0.333333 0.333333
		0.333333 0.333333 0.333333
		0.333333 0.333333 0.333333
		0.333333 0.333333 0.333333
		0.333333 0.333333 0.333333
		0.333333 0.333333 0.333333
		0.333333 0.333333 0.333333
		0.999559 0.000220313 0.000220313
		0.99978 0.000110193 0.000110193
		0.333333 0.333333 0.333333
		0.333333 0.333333 0.333333
		0.333333 0.333333 0.333333
		0.333333 0.333333 0.333333
		0.333333 0.333333 0.333333
		0.000769823 0.000769823 0.99846
		0.333333 0.333333 0.333333
		0.00015425 0.999692 0.00015425
		0.333333 0.333333 0.333333
		0.333333 0.333333 0.333333
		0.333333 0.333333 0.333333
		0.000140233 0.99972 0.000140233
		0.99846 0.000769823 0.000769823
		3.429e-05 0.999931 3.429e-05
		0.333333 0.333333 0.333333
		0.333333 0.333333 0.333333
		0.99846 0.000769823 0.000769823
		0.333333 0.333333 0.333333
		0.333333 0.333333 0.333333
		0.333333 0.333333 0.333333
		0.333333 0.333333 0.333333
		0.333333 0.333333 0.333333
		0.333333 0.333333 0.333333
		0.00017138 0.00017138 0.999657
		0.333333 0.333333 0.333333
		0.333333 0.333333 0.333333
		0.999657 0.00017138 0.00017138
		0.99972 0.000140233 0.000140233
		0.333333 0.333333 0.333333
		0.000110193 0.99978 0.000110193
		0.333333 0.333333 0.333333
		0.333333 0.333333 0.333333
		0.333333 0.333333 0.333333
		0.333333 0.333333 0.333333
		0.99846 0.000769823 0.000769823
		0.333333 0.333333 0.333333
		0.333333 0.333333 0.333333
		0.333333 0.333333 0.333333
		0.333333 0.333333 0.333333
		0.333333 0.333333 0.333333
		0.333333 0.333333 0.333333
		0.333333 0.333333 0.333333
		0.333333 0.333333 0.333333
		0.333333 0.333333 0.333333
		0.333333 0.333333 0.333333
		0.333333 0.333333 0.333333
		0.333333 0.333333 0.333333
		0.99846 0.000769823 0.000769823
		0.333333 0.333333 0.333333
		0.999829 8.57118e-05 8.57118e-05
		0.333333 0.333333 0.333333
		0.333333 0.333333 0.333333
		0.333333 0.333333 0.333333
		0.333333 0.333333 0.333333
		0.333333 0.333333 0.333333
		0.333333 0.333333 0.333333
		0.333333 0.333333 0.333333
		0.333333 0.333333 0.333333
		0.333333 0.333333 0.333333
		0.000769823 0.99846 0.000769823
		0.999559 0.000220313 0.000220313
		7.347e-05 0.999853 7.347e-05
		0.333333 0.333333 0.333333
		0.333333 0.333333 0.333333
		0.333333 0.333333 0.333333
		0.333333 0.333333 0.333333
		0.333333 0.333333 0.333333
		0.333333 0.333333 0.333333
		0.333333 0.333333 0.333333
		0.333333 0.333333 0.333333
		0.333333 0.333333 0.333333
		0.333333 0.333333 0.333333
		0.333333 0.333333 0.333333
		0.333333 0.333333 0.333333
		0.333333 0.333333 0.333333
		0.333333 0.333333 0.333333
		0.333333 0.333333 0.333333
		0.333333 0.333333 0.333333
		0.333333 0.333333 0.333333
		0.333333 0.333333 0.333333
		0.333333 0.333333 0.333333
		0.333333 0.333333 0.333333
		0.333333 0.333333 0.333333
		0.333333 0.333333 0.333333
		0.333333 0.333333 0.333333
		0.333333 0.333333 0.333333
		0.333333 0.333333 0.333333
		0.333333 0.333333 0.333333
		0.333333 0.333333 0.333333
		0.333333 0.333333 0.333333
		0.333333 0.333333 0.333333
		0.333333 0.333333 0.333333
		0.333333 0.333333 0.333333
		0.333333 0.333333 0.333333
		0.333333 0.333333 0.333333
		0.000308356 0.999383 0.000308356
		0.333333 0.333333 0.333333
		0.333333 0.333333 0.333333
		0.333333 0.333333 0.333333
		0.333333 0.333333 0.333333
		0.998973 0.000513611 0.000513611
		6.70826e-05 0.999866 6.70826e-05
		0.333333 0.333333 0.333333
		0.333333 0.333333 0.333333
		0.333333 0.333333 0.333333
		0.333333 0.333333 0.333333
		0.333333 0.333333 0.333333
		0.333333 0.333333 0.333333
		0.333333 0.333333 0.333333
		0.333333 0.333333 0.333333
		0.333333 0.333333 0.333333
		0.333333 0.333333 0.333333
		0.333333 0.333333 0.333333
		0.996928 0.0015361 0.0015361
		0.333333 0.333333 0.333333
		0.333333 0.333333 0.333333
		0.333333 0.333333 0.333333
		0.333333 0.333333 0.333333
		0.333333 0.333333 0.333333
		0.333333 0.333333 0.333333
		0.333333 0.333333 0.333333
		0.333333 0.333333 0.333333
		0.333333 0.333333 0.333333
		0.333333 0.333333 0.333333
		0.333333 0.333333 0.333333
		0.333333 0.333333 0.333333
		0.333333 0.333333 0.333333
		0.333333 0.333333 0.333333
		0.333333 0.333333 0.333333
		0.333333 0.333333 0.333333
		0.333333 0.333333 0.333333
		0.333333 0.333333 0.333333
		0.333333 0.333333 0.333333
		0.333333 0.333333 0.333333
		0.333333 0.333333 0.333333
		0.333333 0.333333 0.333333
		0.333333 0.333333 0.333333
		0.333333 0.333333 0.333333
		0.333333 0.333333 0.333333
		0.333333 0.333333 0.333333
		0.333333 0.333333 0.333333
		0.333333 0.333333 0.333333
		0.333333 0.333333 0.333333
		0.333333 0.333333 0.333333
		0.333333 0.333333 0.333333
		0.333333 0.333333 0.333333
		0.333333 0.333333 0.333333
		0.333333 0.333333 0.333333
		0.999229 0.000385356 0.000385356
		0.999383 0.000308356 0.000308356
		0.333333 0.333333 0.333333
		0.333333 0.333333 0.333333
		0.333333 0.333333 0.333333
		0.333333 0.333333 0.333333
		0.333333 0.333333 0.333333
		0.333333 0.333333 0.333333
		0.333333 0.333333 0.333333
		0.333333 0.333333 0.333333
		0.333333 0.333333 0.333333
		0.333333 0.333333 0.333333
		0.333333 0.333333 0.333333
		0.333333 0.333333 0.333333
		0.333333 0.333333 0.333333
		0.333333 0.333333 0.333333
		0.333333 0.333333 0.333333
		0.333333 0.333333 0.333333
		0.996928 0.0015361 0.0015361
		0.333333 0.333333 0.333333
		0.333333 0.333333 0.333333
		0.333333 0.333333 0.333333
		0.333333 0.333333 0.333333
		0.333333 0.333333 0.333333
		0.333333 0.333333 0.333333
		0.333333 0.333333 0.333333
		0.333333 0.333333 0.333333
		0.333333 0.333333 0.333333
		0.333333 0.333333 0.333333
		0.333333 0.333333 0.333333
		0.333333 0.333333 0.333333
		0.333333 0.333333 0.333333
		0.333333 0.333333 0.333333
		0.333333 0.333333 0.333333
		0.333333 0.333333 0.333333
		0.333333 0.333333 0.333333
	</TABLE>
</DEFINITION>
<DEFINITION>
	<FOR>wire_at_v110</FOR>
	<TABLE>
		0.188525 0.811475
	</TABLE>
</DEFINITION>
<DEFINITION>
	<FOR>wire_at_v11t</FOR>
	<GIVEN>wire_at_v110</GIVEN>
	<GIVEN>location0</GIVEN>
	<TABLE>
		0.995402 0.00229885 0.00229885
		0.333333 0.333333 0.333333
		0.995134 0.00243309 0.00243309
		0.996234 0.00188324 0.00188324
		0.411573 0.528932 0.0594947
		0.726634 0.000540249 0.272825
		0.0630279 0.905133 0.0318389
		0.236584 0.726379 0.037037
	</TABLE>
</DEFINITION>

</NETWORK>
</BIF>
