<?xml version="1.0" ?>

<BIF VERSION="0.3">
<NETWORK>
<NAME>unnamedBN</NAME>
<PROPERTY>software aGrUM</PROPERTY>

<!-- Variables -->
<VARIABLE TYPE="nature">
	<NAME>location0</NAME>
	<PROPERTY></PROPERTY>
	<OUTCOME>v10</OUTCOME>
	<OUTCOME>v11</OUTCOME>
	<OUTCOME>v2</OUTCOME>
	<OUTCOME>v7</OUTCOME>
</VARIABLE>

<VARIABLE TYPE="nature">
	<NAME>wire_at_v20</NAME>
	<PROPERTY></PROPERTY>
	<OUTCOME>no</OUTCOME>
	<OUTCOME>unknown</OUTCOME>
</VARIABLE>

<VARIABLE TYPE="nature">
	<NAME>wire_at_v2t</NAME>
	<PROPERTY></PROPERTY>
	<OUTCOME>no</OUTCOME>
	<OUTCOME>unknown</OUTCOME>
	<OUTCOME>yes</OUTCOME>
</VARIABLE>

<VARIABLE TYPE="nature">
	<NAME>wire_at_v70</NAME>
	<PROPERTY></PROPERTY>
	<OUTCOME>no</OUTCOME>
	<OUTCOME>unknown</OUTCOME>
</VARIABLE>

<VARIABLE TYPE="nature">
	<NAME>wire_at_v7t</NAME>
	<PROPERTY></PROPERTY>
	<OUTCOME>no</OUTCOME>
	<OUTCOME>unknown</OUTCOME>
	<OUTCOME>yes</OUTCOME>
</VARIABLE>

<VARIABLE TYPE="nature">
	<NAME>wire_at_v100</NAME>
	<PROPERTY></PROPERTY>
	<OUTCOME>no</OUTCOME>
	<OUTCOME>unknown</OUTCOME>
</VARIABLE>

<VARIABLE TYPE="nature">
	<NAME>wire_at_v10t</NAME>
	<PROPERTY></PROPERTY>
	<OUTCOME>no</OUTCOME>
	<OUTCOME>unknown</OUTCOME>
	<OUTCOME>yes</OUTCOME>
</VARIABLE>

<VARIABLE TYPE="nature">
	<NAME>wire_at_v110</NAME>
	<PROPERTY></PROPERTY>
	<OUTCOME>no</OUTCOME>
	<OUTCOME>unknown</OUTCOME>
</VARIABLE>

<VARIABLE TYPE="nature">
	<NAME>wire_at_v11t</NAME>
	<PROPERTY></PROPERTY>
	<OUTCOME>no</OUTCOME>
	<OUTCOME>unknown</OUTCOME>
	<OUTCOME>yes</OUTCOME>
</VARIABLE>

<!-- Probability distributions -->
<DEFINITION>
	<FOR>location0</FOR>
	<TABLE>
		0.214444 0.258889 0.263333 0.263333
	</TABLE>
</DEFINITION>
<DEFINITION>
	<FOR>wire_at_v20</FOR>
	<TABLE>
		0.322222 0.677778
	</TABLE>
</DEFINITION>
<DEFINITION>
	<FOR>wire_at_v2t</FOR>
	<GIVEN>wire_at_v11t</GIVEN>
	<GIVEN>location0</GIVEN>
	<GIVEN>wire_at_v20</GIVEN>
	<GIVEN>wire_at_v110</GIVEN>
	<TABLE>
		0.998022 0.00098912 0.00098912
		0.99846 0.000769823 0.000769823
		0.831603 0.0011534 0.167243
		0.997693 0.0011534 0.0011534
		0.333333 0.333333 0.333333
		0.999306 0.000346861 0.000346861
		0.333333 0.333333 0.333333
		0.000289101 0.999422 0.000289101
		0.333333 0.333333 0.333333
		0.333333 0.333333 0.333333
		0.614933 0.000533333 0.384533
		0.00229885 0.00229885 0.995402
		0.998022 0.00098912 0.00098912
		0.996546 0.00172712 0.00172712
		0.399861 0.499653 0.100485
		0.998022 0.00098912 0.00098912
		0.333333 0.333333 0.333333
		0.997693 0.0011534 0.0011534
		0.333333 0.333333 0.333333
		0.000533333 0.998933 0.000533333
		0.333333 0.333333 0.333333
		0.333333 0.333333 0.333333
		0.333333 0.333333 0.333333
		0.333333 0.333333 0.333333
		0.333333 0.333333 0.333333
		0.333333 0.333333 0.333333
		0.333333 0.333333 0.333333
		0.999677 0.000161421 0.000161421
		0.333333 0.333333 0.333333
		0.99874 0.00063012 0.00063012
		0.333333 0.333333 0.333333
		0.000385356 0.999229 0.000385356
		0.333333 0.333333 0.333333
		0.986395 0.00680272 0.00680272
		0.333333 0.333333 0.333333
		0.333333 0.333333 0.333333
		0.333333 0.333333 0.333333
		0.997234 0.00138313 0.00138313
		0.333333 0.333333 0.333333
		0.99846 0.000769823 0.000769823
		0.333333 0.333333 0.333333
		0.333333 0.333333 0.333333
		0.333333 0.333333 0.333333
		0.333333 0.333333 0.333333
		0.333333 0.333333 0.333333
		0.993127 0.00343643 0.00343643
		0.333333 0.333333 0.333333
		0.333333 0.333333 0.333333
	</TABLE>
</DEFINITION>
<DEFINITION>
	<FOR>wire_at_v70</FOR>
	<TABLE>
		0.193333 0.806667
	</TABLE>
</DEFINITION>
<DEFINITION>
	<FOR>wire_at_v7t</FOR>
	<GIVEN>wire_at_v70</GIVEN>
	<GIVEN>location0</GIVEN>
	<GIVEN>wire_at_v11t</GIVEN>
	<GIVEN>wire_at_v2t</GIVEN>
	<TABLE>
		0.99868 0.000660066 0.000660066
		0.333333 0.333333 0.333333
		0.990868 0.00456621 0.00456621
		0.333333 0.333333 0.333333
		0.995402 0.00229885 0.00229885
		0.333333 0.333333 0.333333
		0.990868 0.00456621 0.00456621
		0.333333 0.333333 0.333333
		0.333333 0.333333 0.333333
		0.999229 0.000385356 0.000385356
		0.990868 0.00456621 0.00456621
		0.333333 0.333333 0.333333
		0.333333 0.333333 0.333333
		0.333333 0.333333 0.333333
		0.333333 0.333333 0.333333
		0.998845 0.000577701 0.000577701
		0.333333 0.333333 0.333333
		0.333333 0.333333 0.333333
		0.990868 0.00456621 0.00456621
		0.333333 0.333333 0.333333
		0.995402 0.00229885 0.00229885
		0.998845 0.000577701 0.000577701
		0.333333 0.333333 0.333333
		0.333333 0.333333 0.333333
		0.333333 0.333333 0.333333
		0.333333 0.333333 0.333333
		0.333333 0.333333 0.333333
		0.333333 0.333333 0.333333
		0.333333 0.333333 0.333333
		0.333333 0.333333 0.333333
		0.333333 0.333333 0.333333
		0.333333 0.333333 0.333333
		0.333333 0.333333 0.333333
		0.333333 0.333333 0.333333
		0.333333 0.333333 0.333333
		0.333333 0.333333 0.333333
		0.949572 0.000231321 0.0501966
		0.333333 0.333333 0.333333
		0.333333 0.333333 0.333333
		0.000769823 0.99846 0.000769823
		0.000420345 0.999159 0.000420345
		0.333333 0.333333 0.333333
		0.333333 0.333333 0.333333
		0.333333 0.333333 0.333333
		0.333333 0.333333 0.333333
		0.000577701 0.874061 0.125361
		0.000201167 0.999598 0.000201167
		0.333333 0.333333 0.333333
		0.333333 0.333333 0.333333
		0.333333 0.333333 0.333333
		0.333333 0.333333 0.333333
		0.99846 0.000769823 0.000769823
		0.333333 0.333333 0.333333
		0.333333 0.333333 0.333333
		0.000660066 0.99868 0.000660066
		0.333333 0.333333 0.333333
		0.99846 0.000769823 0.000769823
		0.000132223 0.999736 0.000132223
		0.333333 0.333333 0.333333
		0.333333 0.333333 0.333333
		0.333333 0.333333 0.333333
		0.333333 0.333333 0.333333
		0.333333 0.333333 0.333333
		0.22734 0.000210305 0.77245
		0.998153 0.000923361 0.000923361
		0.990868 0.00456621 0.00456621
		0.999159 0.000420345 0.000420345
		0.999486 0.000257003 0.000257003
		0.333333 0.333333 0.333333
		0.995402 0.00229885 0.00229885
		0.333333 0.333333 0.333333
		0.333333 0.333333 0.333333
	</TABLE>
</DEFINITION>
<DEFINITION>
	<FOR>wire_at_v100</FOR>
	<TABLE>
		0.126667 0.873333
	</TABLE>
</DEFINITION>
<DEFINITION>
	<FOR>wire_at_v10t</FOR>
	<GIVEN>wire_at_v2t</GIVEN>
	<GIVEN>location0</GIVEN>
	<GIVEN>wire_at_v11t</GIVEN>
	<GIVEN>wire_at_v7t</GIVEN>
	<GIVEN>wire_at_v100</GIVEN>
	<TABLE>
		0.333333 0.333333 0.333333
		5.93437e-05 5.93437e-05 0.999881
		0.333333 0.333333 0.333333
		0.333333 0.333333 0.333333
		0.333333 0.333333 0.333333
		0.996928 0.0015361 0.0015361
		0.333333 0.333333 0.333333
		0.333333 0.333333 0.333333
		0.333333 0.333333 0.333333
		0.999486 0.000257003 0.000257003
		0.333333 0.333333 0.333333
		0.333333 0.333333 0.333333
		0.333333 0.333333 0.333333
		0.996928 0.0015361 0.0015361
		0.333333 0.333333 0.333333
		0.333333 0.333333 0.333333
		0.333333 0.333333 0.333333
		0.333333 0.333333 0.333333
		0.333333 0.333333 0.333333
		0.000128551 0.000128551 0.999743
		0.333333 0.333333 0.333333
		0.000220313 0.999559 0.000220313
		0.996928 0.0015361 0.0015361
		0.333333 0.333333 0.333333
		0.333333 0.333333 0.333333
		0.333333 0.333333 0.333333
		0.333333 0.333333 0.333333
		0.333333 0.333333 0.333333
		0.333333 0.333333 0.333333
		0.333333 0.333333 0.333333
		0.999229 0.000385356 0.000385356
		0.999692 0.00015425 0.00015425
		0.333333 0.333333 0.333333
		0.333333 0.333333 0.333333
		0.333333 0.333333 0.333333
		0.333333 0.333333 0.333333
		0.333333 0.333333 0.333333
		0.0015361 0.0015361 0.996928
		0.333333 0.333333 0.333333
		0.000220313 0.999559 0.000220313
		0.333333 0.333333 0.333333
		0.333333 0.333333 0.333333
		0.333333 0.333333 0.333333
		0.00019279 0.999614 0.00019279
		0.996928 0.0015361 0.0015361
		4.53823e-05 0.999909 4.53823e-05
		0.333333 0.333333 0.333333
		0.333333 0.333333 0.333333
		0.333333 0.333333 0.333333
		0.333333 0.333333 0.333333
		0.333333 0.333333 0.333333
		0.333333 0.333333 0.333333
		0.333333 0.333333 0.333333
		0.333333 0.333333 0.333333
		0.333333 0.333333 0.333333
		0.000308356 0.000308356 0.999383
		0.333333 0.333333 0.333333
		0.333333 0.333333 0.333333
		0.999614 0.00019279 0.00019279
		0.999657 0.00017138 0.00017138
		0.333333 0.333333 0.333333
		0.000140233 0.99972 0.000140233
		0.333333 0.333333 0.333333
		0.333333 0.333333 0.333333
		0.333333 0.333333 0.333333
		0.333333 0.333333 0.333333
		0.99846 0.000769823 0.000769823
		0.333333 0.333333 0.333333
		0.333333 0.333333 0.333333
		0.333333 0.333333 0.333333
		0.333333 0.333333 0.333333
		0.333333 0.333333 0.333333
		0.333333 0.333333 0.333333
		0.333333 0.333333 0.333333
		0.333333 0.333333 0.333333
		0.333333 0.333333 0.333333
		0.333333 0.333333 0.333333
		0.333333 0.333333 0.333333
		0.333333 0.333333 0.333333
		0.99846 0.000769823 0.000769823
		0.333333 0.333333 0.333333
		0.99972 0.000140233 0.000140233
		0.333333 0.333333 0.333333
		0.333333 0.333333 0.333333
		0.333333 0.333333 0.333333
		0.333333 0.333333 0.333333
		0.333333 0.333333 0.333333
		0.333333 0.333333 0.333333
		0.333333 0.333333 0.333333
		0.333333 0.333333 0.333333
		0.333333 0.333333 0.333333
		0.0015361 0.996928 0.0015361
		0.999559 0.000220313 0.000220313
		9.64227e-05 0.999807 9.64227e-05
		0.333333 0.333333 0.333333
		0.333333 0.333333 0.333333
		0.333333 0.333333 0.333333
		0.333333 0.333333 0.333333
		0.333333 0.333333 0.333333
		0.333333 0.333333 0.333333
		0.333333 0.333333 0.333333
		0.333333 0.333333 0.333333
		0.333333 0.333333 0.333333
		0.333333 0.333333 0.333333
		0.333333 0.333333 0.333333
		0.333333 0.333333 0.333333
		0.333333 0.333333 0.333333
		0.333333 0.333333 0.333333
		0.333333 0.333333 0.333333
		0.333333 0.333333 0.333333
		0.333333 0.333333 0.333333
		0.333333 0.333333 0.333333
		0.333333 0.333333 0.333333
		0.333333 0.333333 0.333333
		0.333333 0.333333 0.333333
		0.333333 0.333333 0.333333
		0.333333 0.333333 0.333333
		0.333333 0.333333 0.333333
		0.333333 0.333333 0.333333
		0.333333 0.333333 0.333333
		0.333333 0.333333 0.333333
		0.333333 0.333333 0.333333
		0.333333 0.333333 0.333333
		0.333333 0.333333 0.333333
		0.333333 0.333333 0.333333
		0.333333 0.333333 0.333333
		0.333333 0.333333 0.333333
		0.000308356 0.999383 0.000308356
		0.333333 0.333333 0.333333
		0.333333 0.333333 0.333333
		0.333333 0.333333 0.333333
		0.333333 0.333333 0.333333
		0.996928 0.0015361 0.0015361
		9.07523e-05 0.999818 9.07523e-05
		0.333333 0.333333 0.333333
		0.333333 0.333333 0.333333
		0.333333 0.333333 0.333333
		0.333333 0.333333 0.333333
		0.333333 0.333333 0.333333
		0.333333 0.333333 0.333333
		0.333333 0.333333 0.333333
		0.333333 0.333333 0.333333
		0.333333 0.333333 0.333333
		0.333333 0.333333 0.333333
		0.333333 0.333333 0.333333
		0.996928 0.0015361 0.0015361
		0.333333 0.333333 0.333333
		0.333333 0.333333 0.333333
		0.333333 0.333333 0.333333
		0.333333 0.333333 0.333333
		0.333333 0.333333 0.333333
		0.333333 0.333333 0.333333
		0.333333 0.333333 0.333333
		0.333333 0.333333 0.333333
		0.333333 0.333333 0.333333
		0.333333 0.333333 0.333333
		0.333333 0.333333 0.333333
		0.333333 0.333333 0.333333
		0.333333 0.333333 0.333333
		0.333333 0.333333 0.333333
		0.333333 0.333333 0.333333
		0.333333 0.333333 0.333333
		0.333333 0.333333 0.333333
		0.333333 0.333333 0.333333
		0.333333 0.333333 0.333333
		0.333333 0.333333 0.333333
		0.333333 0.333333 0.333333
		0.333333 0.333333 0.333333
		0.333333 0.333333 0.333333
		0.333333 0.333333 0.333333
		0.333333 0.333333 0.333333
		0.333333 0.333333 0.333333
		0.333333 0.333333 0.333333
		0.333333 0.333333 0.333333
		0.333333 0.333333 0.333333
		0.333333 0.333333 0.333333
		0.333333 0.333333 0.333333
		0.333333 0.333333 0.333333
		0.333333 0.333333 0.333333
		0.333333 0.333333 0.333333
		0.998973 0.000513611 0.000513611
		0.999383 0.000308356 0.000308356
		0.333333 0.333333 0.333333
		0.333333 0.333333 0.333333
		0.333333 0.333333 0.333333
		0.333333 0.333333 0.333333
		0.333333 0.333333 0.333333
		0.333333 0.333333 0.333333
		0.333333 0.333333 0.333333
		0.333333 0.333333 0.333333
		0.333333 0.333333 0.333333
		0.333333 0.333333 0.333333
		0.333333 0.333333 0.333333
		0.333333 0.333333 0.333333
		0.333333 0.333333 0.333333
		0.333333 0.333333 0.333333
		0.333333 0.333333 0.333333
		0.333333 0.333333 0.333333
		0.996928 0.0015361 0.0015361
		0.333333 0.333333 0.333333
		0.333333 0.333333 0.333333
		0.333333 0.333333 0.333333
		0.333333 0.333333 0.333333
		0.333333 0.333333 0.333333
		0.333333 0.333333 0.333333
		0.333333 0.333333 0.333333
		0.333333 0.333333 0.333333
		0.333333 0.333333 0.333333
		0.333333 0.333333 0.333333
		0.333333 0.333333 0.333333
		0.333333 0.333333 0.333333
		0.333333 0.333333 0.333333
		0.333333 0.333333 0.333333
		0.333333 0.333333 0.333333
		0.333333 0.333333 0.333333
		0.333333 0.333333 0.333333
	</TABLE>
</DEFINITION>
<DEFINITION>
	<FOR>wire_at_v110</FOR>
	<TABLE>
		0.193333 0.806667
	</TABLE>
</DEFINITION>
<DEFINITION>
	<FOR>wire_at_v11t</FOR>
	<GIVEN>wire_at_v110</GIVEN>
	<GIVEN>location0</GIVEN>
	<TABLE>
		0.993651 0.0031746 0.0031746
		0.333333 0.333333 0.333333
		0.993651 0.0031746 0.0031746
		0.995134 0.00243309 0.00243309
		0.428233 0.542112 0.029656
		0.757706 0.000716846 0.241577
		0.065944 0.933153 0.000903342
		0.262117 0.689416 0.0484669
	</TABLE>
</DEFINITION>

</NETWORK>
</BIF>
