<?xml version="1.0" ?>

<BIF VERSION="0.3">
<NETWORK>
<NAME>unnamedBN</NAME>
<PROPERTY>software aGrUM</PROPERTY>

<!-- Variables -->
<VARIABLE TYPE="nature">
	<NAME>location</NAME>
	<PROPERTY></PROPERTY>
	<OUTCOME>v1</OUTCOME>
	<OUTCOME>v2</OUTCOME>
</VARIABLE>

<VARIABLE TYPE="nature">
	<NAME>r</NAME>
	<PROPERTY></PROPERTY>
	<OUTCOME>8</OUTCOME>
</VARIABLE>

<VARIABLE TYPE="nature">
	<NAME>v2_door</NAME>
	<PROPERTY></PROPERTY>
	<OUTCOME>closed</OUTCOME>
	<OUTCOME>open</OUTCOME>
	<OUTCOME>unknown</OUTCOME>
</VARIABLE>

<VARIABLE TYPE="nature">
	<NAME>v4_door</NAME>
	<PROPERTY></PROPERTY>
	<OUTCOME>closed</OUTCOME>
	<OUTCOME>open</OUTCOME>
	<OUTCOME>unknown</OUTCOME>
</VARIABLE>

<VARIABLE TYPE="nature">
	<NAME>v5_door</NAME>
	<PROPERTY></PROPERTY>
	<OUTCOME>closed</OUTCOME>
	<OUTCOME>open</OUTCOME>
	<OUTCOME>unknown</OUTCOME>
</VARIABLE>

<VARIABLE TYPE="nature">
	<NAME>v6_door</NAME>
	<PROPERTY></PROPERTY>
	<OUTCOME>closed</OUTCOME>
	<OUTCOME>open</OUTCOME>
	<OUTCOME>unknown</OUTCOME>
</VARIABLE>

<VARIABLE TYPE="nature">
	<NAME>v7_door</NAME>
	<PROPERTY></PROPERTY>
	<OUTCOME>open</OUTCOME>
	<OUTCOME>unknown</OUTCOME>
</VARIABLE>

<!-- Probability distributions -->
<DEFINITION>
	<FOR>location</FOR>
	<TABLE>
		0.53125 0.46875
	</TABLE>
</DEFINITION>
<DEFINITION>
	<FOR>r</FOR>
	<GIVEN>location</GIVEN>
	<GIVEN>v6_door</GIVEN>
	<GIVEN>v4_door</GIVEN>
	<GIVEN>v5_door</GIVEN>
	<GIVEN>v7_door</GIVEN>
	<GIVEN>v2_door</GIVEN>
	<TABLE>
		1
		1
		1
		1
		1
		1
		1
		1
		1
		1
		1
		1
		1
		1
		1
		1
		1
		1
		1
		1
		1
		1
		1
		1
		1
		1
		1
		1
		1
		1
		1
		1
		1
		1
		1
		1
		1
		1
		1
		1
		1
		1
		1
		1
		1
		1
		1
		1
		1
		1
		1
		1
		1
		1
		1
		1
		1
		1
		1
		1
		1
		1
		1
		1
		1
		1
		1
		1
		1
		1
		1
		1
		1
		1
		1
		1
		1
		1
		1
		1
		1
		1
		1
		1
		1
		1
		1
		1
		1
		1
		1
		1
		1
		1
		1
		1
		1
		1
		1
		1
		1
		1
		1
		1
		1
		1
		1
		1
		1
		1
		1
		1
		1
		1
		1
		1
		1
		1
		1
		1
		1
		1
		1
		1
		1
		1
		1
		1
		1
		1
		1
		1
		1
		1
		1
		1
		1
		1
		1
		1
		1
		1
		1
		1
		1
		1
		1
		1
		1
		1
		1
		1
		1
		1
		1
		1
		1
		1
		1
		1
		1
		1
		1
		1
		1
		1
		1
		1
		1
		1
		1
		1
		1
		1
		1
		1
		1
		1
		1
		1
		1
		1
		1
		1
		1
		1
		1
		1
		1
		1
		1
		1
		1
		1
		1
		1
		1
		1
		1
		1
		1
		1
		1
		1
		1
		1
		1
		1
		1
		1
		1
		1
		1
		1
		1
		1
		1
		1
		1
		1
		1
		1
		1
		1
		1
		1
		1
		1
		1
		1
		1
		1
		1
		1
		1
		1
		1
		1
		1
		1
		1
		1
		1
		1
		1
		1
		1
		1
		1
		1
		1
		1
		1
		1
		1
		1
		1
		1
		1
		1
		1
		1
		1
		1
		1
		1
		1
		1
		1
		1
		1
		1
		1
		1
		1
		1
		1
		1
		1
		1
		1
		1
		1
		1
		1
		1
		1
		1
		1
		1
		1
		1
		1
		1
		1
		1
		1
		1
		1
		1
		1
		1
		1
		1
		1
		1
		1
		1
		1
		1
		1
		1
		1
		1
		1
		1
		1
		1
		1
		1
		1
		1
		1
		1
	</TABLE>
</DEFINITION>
<DEFINITION>
	<FOR>v2_door</FOR>
	<TABLE>
		0.0291667 0.691667 0.279167
	</TABLE>
</DEFINITION>
<DEFINITION>
	<FOR>v4_door</FOR>
	<TABLE>
		0.141667 0.504167 0.354167
	</TABLE>
</DEFINITION>
<DEFINITION>
	<FOR>v5_door</FOR>
	<TABLE>
		0.0666667 0.479167 0.454167
	</TABLE>
</DEFINITION>
<DEFINITION>
	<FOR>v6_door</FOR>
	<TABLE>
		0.179167 0.354167 0.466667
	</TABLE>
</DEFINITION>
<DEFINITION>
	<FOR>v7_door</FOR>
	<TABLE>
		0.45625 0.54375
	</TABLE>
</DEFINITION>

</NETWORK>
</BIF>
