<?xml version="1.0" ?>

<BIF VERSION="0.3">
<NETWORK>
<NAME>unnamedBN</NAME>
<PROPERTY>software aGrUM</PROPERTY>

<!-- Variables -->
<VARIABLE TYPE="nature">
	<NAME>r</NAME>
	<PROPERTY></PROPERTY>
	<OUTCOME>3</OUTCOME>
</VARIABLE>

<VARIABLE TYPE="nature">
	<NAME>v2_door</NAME>
	<PROPERTY></PROPERTY>
	<OUTCOME>closed</OUTCOME>
	<OUTCOME>open</OUTCOME>
	<OUTCOME>unknown</OUTCOME>
</VARIABLE>

<VARIABLE TYPE="nature">
	<NAME>v3_door</NAME>
	<PROPERTY></PROPERTY>
	<OUTCOME>closed</OUTCOME>
	<OUTCOME>open</OUTCOME>
	<OUTCOME>unknown</OUTCOME>
</VARIABLE>

<VARIABLE TYPE="nature">
	<NAME>v4_door</NAME>
	<PROPERTY></PROPERTY>
	<OUTCOME>closed</OUTCOME>
	<OUTCOME>open</OUTCOME>
	<OUTCOME>unknown</OUTCOME>
</VARIABLE>

<VARIABLE TYPE="nature">
	<NAME>v5_door</NAME>
	<PROPERTY></PROPERTY>
	<OUTCOME>closed</OUTCOME>
	<OUTCOME>open</OUTCOME>
	<OUTCOME>unknown</OUTCOME>
</VARIABLE>

<VARIABLE TYPE="nature">
	<NAME>v7_door</NAME>
	<PROPERTY></PROPERTY>
	<OUTCOME>closed</OUTCOME>
	<OUTCOME>open</OUTCOME>
	<OUTCOME>unknown</OUTCOME>
</VARIABLE>

<!-- Probability distributions -->
<DEFINITION>
	<FOR>r</FOR>
	<GIVEN>v7_door</GIVEN>
	<GIVEN>v2_door</GIVEN>
	<GIVEN>v5_door</GIVEN>
	<GIVEN>v3_door</GIVEN>
	<GIVEN>v4_door</GIVEN>
	<TABLE>
		1
		1
		1
		1
		1
		1
		1
		1
		1
		1
		1
		1
		1
		1
		1
		1
		1
		1
		1
		1
		1
		1
		1
		1
		1
		1
		1
		1
		1
		1
		1
		1
		1
		1
		1
		1
		1
		1
		1
		1
		1
		1
		1
		1
		1
		1
		1
		1
		1
		1
		1
		1
		1
		1
		1
		1
		1
		1
		1
		1
		1
		1
		1
		1
		1
		1
		1
		1
		1
		1
		1
		1
		1
		1
		1
		1
		1
		1
		1
		1
		1
		1
		1
		1
		1
		1
		1
		1
		1
		1
		1
		1
		1
		1
		1
		1
		1
		1
		1
		1
		1
		1
		1
		1
		1
		1
		1
		1
		1
		1
		1
		1
		1
		1
		1
		1
		1
		1
		1
		1
		1
		1
		1
		1
		1
		1
		1
		1
		1
		1
		1
		1
		1
		1
		1
		1
		1
		1
		1
		1
		1
		1
		1
		1
		1
		1
		1
		1
		1
		1
		1
		1
		1
		1
		1
		1
		1
		1
		1
		1
		1
		1
		1
		1
		1
		1
		1
		1
		1
		1
		1
		1
		1
		1
		1
		1
		1
		1
		1
		1
		1
		1
		1
		1
		1
		1
		1
		1
		1
		1
		1
		1
		1
		1
		1
		1
		1
		1
		1
		1
		1
		1
		1
		1
		1
		1
		1
		1
		1
		1
		1
		1
		1
		1
		1
		1
		1
		1
		1
		1
		1
		1
		1
		1
		1
		1
		1
		1
		1
		1
		1
		1
		1
		1
		1
		1
		1
		1
		1
		1
		1
		1
		1
	</TABLE>
</DEFINITION>
<DEFINITION>
	<FOR>v2_door</FOR>
	<TABLE>
		0.0259344 0.751335 0.222731
	</TABLE>
</DEFINITION>
<DEFINITION>
	<FOR>v3_door</FOR>
	<TABLE>
		0.275362 0.453852 0.270786
	</TABLE>
</DEFINITION>
<DEFINITION>
	<FOR>v4_door</FOR>
	<TABLE>
		0.147216 0.501907 0.350877
	</TABLE>
</DEFINITION>
<DEFINITION>
	<FOR>v5_door</FOR>
	<TABLE>
		0.092296 0.609458 0.298246
	</TABLE>
</DEFINITION>
<DEFINITION>
	<FOR>v7_door</FOR>
	<TABLE>
		0.085431 0.481312 0.433257
	</TABLE>
</DEFINITION>

</NETWORK>
</BIF>
