<?xml version="1.0" ?>

<BIF VERSION="0.3">
<NETWORK>
<NAME>unnamedBN</NAME>
<PROPERTY>software aGrUM</PROPERTY>

<!-- Variables -->
<VARIABLE TYPE="nature">
	<NAME>location</NAME>
	<PROPERTY></PROPERTY>
	<OUTCOME>v2</OUTCOME>
	<OUTCOME>v3</OUTCOME>
	<OUTCOME>v4</OUTCOME>
	<OUTCOME>v5</OUTCOME>
	<OUTCOME>v6</OUTCOME>
	<OUTCOME>v7</OUTCOME>
</VARIABLE>

<VARIABLE TYPE="nature">
	<NAME>r</NAME>
	<PROPERTY></PROPERTY>
	<OUTCOME>6</OUTCOME>
</VARIABLE>

<VARIABLE TYPE="nature">
	<NAME>v3_door</NAME>
	<PROPERTY></PROPERTY>
	<OUTCOME>closed</OUTCOME>
	<OUTCOME>open</OUTCOME>
	<OUTCOME>unknown</OUTCOME>
</VARIABLE>

<VARIABLE TYPE="nature">
	<NAME>v4_door</NAME>
	<PROPERTY></PROPERTY>
	<OUTCOME>closed</OUTCOME>
	<OUTCOME>open</OUTCOME>
	<OUTCOME>unknown</OUTCOME>
</VARIABLE>

<VARIABLE TYPE="nature">
	<NAME>v5_door</NAME>
	<PROPERTY></PROPERTY>
	<OUTCOME>closed</OUTCOME>
	<OUTCOME>open</OUTCOME>
	<OUTCOME>unknown</OUTCOME>
</VARIABLE>

<VARIABLE TYPE="nature">
	<NAME>v6_door</NAME>
	<PROPERTY></PROPERTY>
	<OUTCOME>closed</OUTCOME>
	<OUTCOME>open</OUTCOME>
	<OUTCOME>unknown</OUTCOME>
</VARIABLE>

<VARIABLE TYPE="nature">
	<NAME>v7_door</NAME>
	<PROPERTY></PROPERTY>
	<OUTCOME>closed</OUTCOME>
	<OUTCOME>open</OUTCOME>
	<OUTCOME>unknown</OUTCOME>
</VARIABLE>

<!-- Probability distributions -->
<DEFINITION>
	<FOR>location</FOR>
	<TABLE>
		0.127083 0.239583 0.114583 0.114583 0.264583 0.139583
	</TABLE>
</DEFINITION>
<DEFINITION>
	<FOR>r</FOR>
	<GIVEN>v6_door</GIVEN>
	<GIVEN>v5_door</GIVEN>
	<GIVEN>v7_door</GIVEN>
	<GIVEN>v4_door</GIVEN>
	<GIVEN>location</GIVEN>
	<GIVEN>v3_door</GIVEN>
	<TABLE>
		1
		1
		1
		1
		1
		1
		1
		1
		1
		1
		1
		1
		1
		1
		1
		1
		1
		1
		1
		1
		1
		1
		1
		1
		1
		1
		1
		1
		1
		1
		1
		1
		1
		1
		1
		1
		1
		1
		1
		1
		1
		1
		1
		1
		1
		1
		1
		1
		1
		1
		1
		1
		1
		1
		1
		1
		1
		1
		1
		1
		1
		1
		1
		1
		1
		1
		1
		1
		1
		1
		1
		1
		1
		1
		1
		1
		1
		1
		1
		1
		1
		1
		1
		1
		1
		1
		1
		1
		1
		1
		1
		1
		1
		1
		1
		1
		1
		1
		1
		1
		1
		1
		1
		1
		1
		1
		1
		1
		1
		1
		1
		1
		1
		1
		1
		1
		1
		1
		1
		1
		1
		1
		1
		1
		1
		1
		1
		1
		1
		1
		1
		1
		1
		1
		1
		1
		1
		1
		1
		1
		1
		1
		1
		1
		1
		1
		1
		1
		1
		1
		1
		1
		1
		1
		1
		1
		1
		1
		1
		1
		1
		1
		1
		1
		1
		1
		1
		1
		1
		1
		1
		1
		1
		1
		1
		1
		1
		1
		1
		1
		1
		1
		1
		1
		1
		1
		1
		1
		1
		1
		1
		1
		1
		1
		1
		1
		1
		1
		1
		1
		1
		1
		1
		1
		1
		1
		1
		1
		1
		1
		1
		1
		1
		1
		1
		1
		1
		1
		1
		1
		1
		1
		1
		1
		1
		1
		1
		1
		1
		1
		1
		1
		1
		1
		1
		1
		1
		1
		1
		1
		1
		1
		1
		1
		1
		1
		1
		1
		1
		1
		1
		1
		1
		1
		1
		1
		1
		1
		1
		1
		1
		1
		1
		1
		1
		1
		1
		1
		1
		1
		1
		1
		1
		1
		1
		1
		1
		1
		1
		1
		1
		1
		1
		1
		1
		1
		1
		1
		1
		1
		1
		1
		1
		1
		1
		1
		1
		1
		1
		1
		1
		1
		1
		1
		1
		1
		1
		1
		1
		1
		1
		1
		1
		1
		1
		1
		1
		1
		1
		1
		1
		1
		1
		1
		1
		1
		1
		1
		1
		1
		1
		1
		1
		1
		1
		1
		1
		1
		1
		1
		1
		1
		1
		1
		1
		1
		1
		1
		1
		1
		1
		1
		1
		1
		1
		1
		1
		1
		1
		1
		1
		1
		1
		1
		1
		1
		1
		1
		1
		1
		1
		1
		1
		1
		1
		1
		1
		1
		1
		1
		1
		1
		1
		1
		1
		1
		1
		1
		1
		1
		1
		1
		1
		1
		1
		1
		1
		1
		1
		1
		1
		1
		1
		1
		1
		1
		1
		1
		1
		1
		1
		1
		1
		1
		1
		1
		1
		1
		1
		1
		1
		1
		1
		1
		1
		1
		1
		1
		1
		1
		1
		1
		1
		1
		1
		1
		1
		1
		1
		1
		1
		1
		1
		1
		1
		1
		1
		1
		1
		1
		1
		1
		1
		1
		1
		1
		1
		1
		1
		1
		1
		1
		1
		1
		1
		1
		1
		1
		1
		1
		1
		1
		1
		1
		1
		1
		1
		1
		1
		1
		1
		1
		1
		1
		1
		1
		1
		1
		1
		1
		1
		1
		1
		1
		1
		1
		1
		1
		1
		1
		1
		1
		1
		1
		1
		1
		1
		1
		1
		1
		1
		1
		1
		1
		1
		1
		1
		1
		1
		1
		1
		1
		1
		1
		1
		1
		1
		1
		1
		1
		1
		1
		1
		1
		1
		1
		1
		1
		1
		1
		1
		1
		1
		1
		1
		1
		1
		1
		1
		1
		1
		1
		1
		1
		1
		1
		1
		1
		1
		1
		1
		1
		1
		1
		1
		1
		1
		1
		1
		1
		1
		1
		1
		1
		1
		1
		1
		1
		1
		1
		1
		1
		1
		1
		1
		1
		1
		1
		1
		1
		1
		1
		1
		1
		1
		1
		1
		1
		1
		1
		1
		1
		1
		1
		1
		1
		1
		1
		1
		1
		1
		1
		1
		1
		1
		1
		1
		1
		1
		1
		1
		1
		1
		1
		1
		1
		1
		1
		1
		1
		1
		1
		1
		1
		1
		1
		1
		1
		1
		1
		1
		1
		1
		1
		1
		1
		1
		1
		1
		1
		1
		1
		1
		1
		1
		1
		1
		1
		1
		1
		1
		1
		1
		1
		1
		1
		1
		1
		1
		1
		1
		1
		1
		1
		1
		1
		1
		1
		1
		1
		1
		1
		1
		1
		1
		1
		1
		1
		1
		1
		1
		1
		1
		1
		1
		1
		1
		1
		1
		1
		1
		1
		1
		1
		1
		1
		1
		1
		1
		1
		1
		1
		1
		1
		1
		1
		1
		1
		1
		1
		1
		1
		1
		1
		1
		1
		1
		1
		1
		1
		1
		1
		1
		1
		1
		1
		1
		1
		1
		1
		1
		1
		1
		1
		1
		1
		1
		1
		1
		1
		1
		1
		1
		1
		1
		1
		1
		1
		1
		1
		1
		1
		1
		1
		1
		1
		1
		1
		1
		1
		1
		1
		1
		1
		1
		1
		1
		1
		1
		1
		1
		1
		1
		1
		1
		1
		1
		1
		1
		1
		1
		1
		1
		1
		1
		1
		1
		1
		1
		1
		1
		1
		1
		1
		1
		1
		1
		1
		1
		1
		1
		1
		1
		1
		1
		1
		1
		1
		1
		1
		1
		1
		1
		1
		1
		1
		1
		1
		1
		1
		1
		1
		1
		1
		1
		1
		1
		1
		1
		1
		1
		1
		1
		1
		1
		1
		1
		1
		1
		1
		1
		1
		1
		1
		1
		1
		1
		1
		1
		1
		1
		1
		1
		1
		1
		1
		1
		1
		1
		1
		1
		1
		1
		1
		1
		1
		1
		1
		1
		1
		1
		1
		1
		1
		1
		1
		1
		1
		1
		1
		1
		1
		1
		1
		1
		1
		1
		1
		1
		1
		1
		1
		1
		1
		1
		1
		1
		1
		1
		1
		1
		1
		1
		1
		1
		1
		1
		1
		1
		1
		1
		1
		1
		1
		1
		1
		1
		1
		1
		1
		1
		1
		1
		1
		1
		1
		1
		1
		1
		1
		1
		1
		1
		1
		1
		1
		1
		1
		1
		1
		1
		1
		1
		1
		1
		1
		1
		1
		1
		1
		1
		1
		1
		1
		1
		1
		1
		1
		1
		1
		1
		1
		1
		1
		1
		1
		1
		1
		1
		1
		1
		1
		1
		1
		1
		1
		1
		1
		1
		1
		1
		1
		1
		1
		1
		1
		1
		1
		1
		1
		1
		1
		1
		1
		1
		1
		1
		1
		1
		1
		1
		1
		1
		1
		1
		1
		1
		1
		1
		1
		1
		1
		1
		1
		1
		1
		1
		1
		1
		1
		1
		1
		1
		1
		1
		1
		1
		1
		1
		1
		1
		1
		1
		1
		1
		1
		1
		1
		1
		1
		1
		1
		1
		1
		1
		1
		1
		1
		1
		1
		1
		1
		1
		1
		1
		1
		1
		1
		1
		1
		1
		1
		1
		1
		1
		1
		1
		1
		1
		1
		1
		1
		1
		1
		1
		1
		1
		1
		1
		1
		1
		1
		1
		1
		1
		1
		1
		1
		1
		1
		1
		1
		1
		1
		1
		1
		1
		1
		1
		1
		1
		1
		1
		1
		1
		1
		1
		1
		1
		1
		1
		1
		1
		1
		1
		1
		1
		1
		1
		1
		1
		1
		1
		1
		1
		1
		1
		1
		1
		1
		1
		1
		1
		1
		1
		1
		1
		1
		1
		1
		1
		1
		1
		1
		1
		1
		1
		1
		1
		1
		1
		1
		1
		1
		1
		1
		1
		1
		1
		1
		1
		1
		1
		1
		1
		1
		1
		1
		1
		1
		1
		1
		1
		1
		1
		1
		1
		1
		1
		1
		1
		1
		1
		1
		1
		1
		1
		1
		1
		1
		1
		1
		1
		1
		1
		1
		1
		1
		1
		1
		1
		1
		1
		1
		1
		1
		1
		1
		1
		1
		1
		1
		1
		1
		1
		1
		1
		1
		1
		1
		1
		1
		1
		1
		1
		1
		1
		1
		1
		1
		1
		1
		1
		1
		1
		1
		1
		1
		1
		1
		1
		1
		1
		1
		1
		1
		1
		1
		1
		1
		1
		1
		1
		1
		1
		1
		1
		1
		1
		1
		1
		1
		1
		1
		1
		1
		1
		1
		1
		1
		1
		1
		1
		1
		1
		1
		1
		1
		1
		1
		1
		1
		1
		1
		1
		1
		1
		1
		1
		1
		1
		1
		1
		1
		1
		1
		1
		1
		1
		1
		1
		1
		1
		1
		1
		1
		1
		1
		1
		1
		1
		1
		1
		1
		1
		1
		1
		1
		1
		1
		1
		1
		1
		1
		1
		1
		1
		1
		1
		1
		1
		1
		1
		1
		1
		1
		1
		1
		1
		1
		1
		1
		1
		1
		1
		1
		1
		1
		1
		1
		1
		1
		1
		1
		1
		1
		1
		1
		1
		1
		1
		1
		1
		1
		1
		1
		1
		1
		1
		1
		1
		1
		1
		1
		1
		1
		1
		1
		1
		1
		1
		1
		1
		1
		1
		1
		1
		1
		1
		1
		1
		1
		1
		1
		1
		1
		1
		1
		1
		1
		1
		1
		1
		1
		1
		1
		1
		1
		1
		1
		1
		1
		1
		1
		1
		1
		1
		1
		1
		1
		1
		1
		1
		1
		1
		1
		1
		1
		1
		1
		1
		1
		1
		1
		1
		1
		1
		1
		1
		1
		1
		1
		1
		1
		1
		1
		1
		1
	</TABLE>
</DEFINITION>
<DEFINITION>
	<FOR>v3_door</FOR>
	<TABLE>
		0.391667 0.316667 0.291667
	</TABLE>
</DEFINITION>
<DEFINITION>
	<FOR>v4_door</FOR>
	<TABLE>
		0.241667 0.366667 0.391667
	</TABLE>
</DEFINITION>
<DEFINITION>
	<FOR>v5_door</FOR>
	<TABLE>
		0.216667 0.391667 0.391667
	</TABLE>
</DEFINITION>
<DEFINITION>
	<FOR>v6_door</FOR>
	<TABLE>
		0.291667 0.404167 0.304167
	</TABLE>
</DEFINITION>
<DEFINITION>
	<FOR>v7_door</FOR>
	<TABLE>
		0.179167 0.279167 0.541667
	</TABLE>
</DEFINITION>

</NETWORK>
</BIF>
