<?xml version="1.0" ?>

<BIF VERSION="0.3">
<NETWORK>
<NAME>unnamedBN</NAME>
<PROPERTY>software aGrUM</PROPERTY>

<!-- Variables -->
<VARIABLE TYPE="nature">
	<NAME>location0</NAME>
	<PROPERTY></PROPERTY>
	<OUTCOME>v10</OUTCOME>
	<OUTCOME>v11</OUTCOME>
	<OUTCOME>v2</OUTCOME>
	<OUTCOME>v7</OUTCOME>
</VARIABLE>

<VARIABLE TYPE="nature">
	<NAME>wire_at_v20</NAME>
	<PROPERTY></PROPERTY>
	<OUTCOME>no</OUTCOME>
	<OUTCOME>unknown</OUTCOME>
</VARIABLE>

<VARIABLE TYPE="nature">
	<NAME>wire_at_v2t</NAME>
	<PROPERTY></PROPERTY>
	<OUTCOME>no</OUTCOME>
	<OUTCOME>unknown</OUTCOME>
	<OUTCOME>yes</OUTCOME>
</VARIABLE>

<VARIABLE TYPE="nature">
	<NAME>wire_at_v70</NAME>
	<PROPERTY></PROPERTY>
	<OUTCOME>no</OUTCOME>
	<OUTCOME>unknown</OUTCOME>
</VARIABLE>

<VARIABLE TYPE="nature">
	<NAME>wire_at_v7t</NAME>
	<PROPERTY></PROPERTY>
	<OUTCOME>no</OUTCOME>
	<OUTCOME>unknown</OUTCOME>
	<OUTCOME>yes</OUTCOME>
</VARIABLE>

<VARIABLE TYPE="nature">
	<NAME>wire_at_v100</NAME>
	<PROPERTY></PROPERTY>
	<OUTCOME>no</OUTCOME>
	<OUTCOME>unknown</OUTCOME>
</VARIABLE>

<VARIABLE TYPE="nature">
	<NAME>wire_at_v10t</NAME>
	<PROPERTY></PROPERTY>
	<OUTCOME>no</OUTCOME>
	<OUTCOME>unknown</OUTCOME>
	<OUTCOME>yes</OUTCOME>
</VARIABLE>

<VARIABLE TYPE="nature">
	<NAME>wire_at_v110</NAME>
	<PROPERTY></PROPERTY>
	<OUTCOME>no</OUTCOME>
	<OUTCOME>unknown</OUTCOME>
</VARIABLE>

<VARIABLE TYPE="nature">
	<NAME>wire_at_v11t</NAME>
	<PROPERTY></PROPERTY>
	<OUTCOME>no</OUTCOME>
	<OUTCOME>unknown</OUTCOME>
	<OUTCOME>yes</OUTCOME>
</VARIABLE>

<!-- Probability distributions -->
<DEFINITION>
	<FOR>location0</FOR>
	<TABLE>
		0.21657 0.268895 0.257267 0.257267
	</TABLE>
</DEFINITION>
<DEFINITION>
	<FOR>wire_at_v20</FOR>
	<TABLE>
		0.311047 0.688953
	</TABLE>
</DEFINITION>
<DEFINITION>
	<FOR>wire_at_v2t</FOR>
	<GIVEN>wire_at_v10t</GIVEN>
	<GIVEN>wire_at_v11t</GIVEN>
	<GIVEN>location0</GIVEN>
	<GIVEN>wire_at_v20</GIVEN>
	<TABLE>
		0.333333 0.333333 0.333333
		0.00456621 0.00456621 0.990868
		0.990868 0.00456621 0.00456621
		0.000923361 0.998153 0.000923361
		0.333333 0.333333 0.333333
		0.000769823 0.000769823 0.99846
		0.998153 0.000923361 0.000923361
		0.998973 0.000513611 0.000513611
		0.998153 0.000923361 0.000923361
		0.000462321 0.999075 0.000462321
		0.333333 0.333333 0.333333
		0.333333 0.333333 0.333333
		0.333333 0.333333 0.333333
		0.990868 0.00456621 0.00456621
		0.333333 0.333333 0.333333
		0.00456621 0.990868 0.00456621
		0.333333 0.333333 0.333333
		0.333333 0.333333 0.333333
		0.997693 0.0011534 0.0011534
		0.99868 0.000660066 0.000660066
		0.333333 0.333333 0.333333
		0.333333 0.333333 0.333333
		0.995402 0.00229885 0.00229885
		0.333333 0.333333 0.333333
		0.333333 0.333333 0.333333
		0.333333 0.333333 0.333333
		0.997693 0.0011534 0.0011534
		0.000289101 0.999422 0.000289101
		0.333333 0.333333 0.333333
		0.99846 0.000769823 0.000769823
		0.333333 0.333333 0.333333
		0.000923361 0.998153 0.000923361
		0.333333 0.333333 0.333333
		0.333333 0.333333 0.333333
		0.333333 0.333333 0.333333
		0.333333 0.333333 0.333333
		0.333333 0.333333 0.333333
		0.999692 0.00015425 0.00015425
		0.998973 0.000513611 0.000513611
		0.000420345 0.999159 0.000420345
		0.333333 0.333333 0.333333
		0.333333 0.333333 0.333333
		0.333333 0.333333 0.333333
		0.333333 0.333333 0.333333
		0.333333 0.333333 0.333333
		0.333333 0.333333 0.333333
		0.333333 0.333333 0.333333
		0.333333 0.333333 0.333333
		0.999229 0.000385356 0.000385356
		0.998973 0.000513611 0.000513611
		0.998973 0.000513611 0.000513611
		0.333333 0.333333 0.333333
		0.333333 0.333333 0.333333
		0.990868 0.00456621 0.00456621
		0.995402 0.00229885 0.00229885
		0.333333 0.333333 0.333333
		0.333333 0.333333 0.333333
		0.333333 0.333333 0.333333
		0.333333 0.333333 0.333333
		0.333333 0.333333 0.333333
		0.333333 0.333333 0.333333
		0.333333 0.333333 0.333333
		0.333333 0.333333 0.333333
		0.333333 0.333333 0.333333
		0.333333 0.333333 0.333333
		0.333333 0.333333 0.333333
		0.333333 0.333333 0.333333
		0.333333 0.333333 0.333333
		0.333333 0.333333 0.333333
		0.333333 0.333333 0.333333
		0.333333 0.333333 0.333333
		0.333333 0.333333 0.333333
	</TABLE>
</DEFINITION>
<DEFINITION>
	<FOR>wire_at_v70</FOR>
	<TABLE>
		0.18314 0.81686
	</TABLE>
</DEFINITION>
<DEFINITION>
	<FOR>wire_at_v7t</FOR>
	<GIVEN>wire_at_v70</GIVEN>
	<GIVEN>location0</GIVEN>
	<TABLE>
		0.989744 0.00512821 0.00512821
		0.995134 0.00243309 0.00243309
		0.986395 0.00680272 0.00680272
		0.333333 0.333333 0.333333
		0.550787 0.447783 0.00143062
		0.13877 0.825465 0.0357654
		0.13224 0.866667 0.0010929
		0.680831 0.000944287 0.318225
	</TABLE>
</DEFINITION>
<DEFINITION>
	<FOR>wire_at_v100</FOR>
	<TABLE>
		0.130814 0.869186
	</TABLE>
</DEFINITION>
<DEFINITION>
	<FOR>wire_at_v10t</FOR>
	<GIVEN>location0</GIVEN>
	<GIVEN>wire_at_v7t</GIVEN>
	<GIVEN>wire_at_v100</GIVEN>
	<GIVEN>wire_at_v70</GIVEN>
	<TABLE>
		0.333333 0.333333 0.333333
		0.333333 0.333333 0.333333
		0.374892 0.000865801 0.624242
		0.000433463 0.000433463 0.999133
		0.333333 0.333333 0.333333
		0.333333 0.333333 0.333333
		0.333333 0.333333 0.333333
		0.998933 0.000533333 0.000533333
		0.333333 0.333333 0.333333
		0.333333 0.333333 0.333333
		0.333333 0.333333 0.333333
		0.333333 0.333333 0.333333
		0.995402 0.00229885 0.00229885
		0.986395 0.00680272 0.00680272
		0.285785 0.0718177 0.642397
		0.995402 0.00229885 0.00229885
		0.333333 0.333333 0.333333
		0.997234 0.00138313 0.00138313
		0.333333 0.333333 0.333333
		0.000365097 0.99927 0.000365097
		0.333333 0.333333 0.333333
		0.986395 0.00680272 0.00680272
		0.333333 0.333333 0.333333
		0.333333 0.333333 0.333333
		0.333333 0.333333 0.333333
		0.993127 0.00343643 0.00343643
		0.167243 0.665513 0.167243
		0.995402 0.00229885 0.00229885
		0.333333 0.333333 0.333333
		0.986395 0.00680272 0.00680272
		0.333333 0.333333 0.333333
		0.000216873 0.999566 0.000216873
		0.333333 0.333333 0.333333
		0.333333 0.333333 0.333333
		0.333333 0.333333 0.333333
		0.333333 0.333333 0.333333
		0.333333 0.333333 0.333333
		0.995402 0.00229885 0.00229885
		0.333333 0.333333 0.333333
		0.000257003 0.925469 0.074274
		0.333333 0.333333 0.333333
		0.333333 0.333333 0.333333
		0.333333 0.333333 0.333333
		0.333333 0.333333 0.333333
		0.333333 0.333333 0.333333
		0.997693 0.0011534 0.0011534
		0.333333 0.333333 0.333333
		0.998268 0.000865801 0.000865801
	</TABLE>
</DEFINITION>
<DEFINITION>
	<FOR>wire_at_v110</FOR>
	<TABLE>
		0.212209 0.787791
	</TABLE>
</DEFINITION>
<DEFINITION>
	<FOR>wire_at_v11t</FOR>
	<GIVEN>wire_at_v110</GIVEN>
	<GIVEN>wire_at_v7t</GIVEN>
	<GIVEN>location0</GIVEN>
	<GIVEN>wire_at_v10t</GIVEN>
	<TABLE>
		0.990868 0.00456621 0.00456621
		0.333333 0.333333 0.333333
		0.999159 0.000420345 0.000420345
		0.333333 0.333333 0.333333
		0.333333 0.333333 0.333333
		0.333333 0.333333 0.333333
		0.997693 0.0011534 0.0011534
		0.333333 0.333333 0.333333
		0.990868 0.00456621 0.00456621
		0.333333 0.333333 0.333333
		0.998153 0.000923361 0.000923361
		0.995402 0.00229885 0.00229885
		0.333333 0.333333 0.333333
		0.333333 0.333333 0.333333
		0.333333 0.333333 0.333333
		0.333333 0.333333 0.333333
		0.333333 0.333333 0.333333
		0.333333 0.333333 0.333333
		0.333333 0.333333 0.333333
		0.99846 0.000769823 0.000769823
		0.333333 0.333333 0.333333
		0.333333 0.333333 0.333333
		0.333333 0.333333 0.333333
		0.333333 0.333333 0.333333
		0.333333 0.333333 0.333333
		0.333333 0.333333 0.333333
		0.333333 0.333333 0.333333
		0.333333 0.333333 0.333333
		0.333333 0.333333 0.333333
		0.333333 0.333333 0.333333
		0.333333 0.333333 0.333333
		0.333333 0.333333 0.333333
		0.333333 0.333333 0.333333
		0.99846 0.000769823 0.000769823
		0.333333 0.333333 0.333333
		0.333333 0.333333 0.333333
		0.00229885 0.995402 0.00229885
		0.333333 0.333333 0.333333
		0.999075 0.000462321 0.000462321
		0.000420345 0.000420345 0.999159
		0.990868 0.00456621 0.00456621
		0.998973 0.000513611 0.000513611
		0.995402 0.00229885 0.00229885
		0.0011534 0.997693 0.0011534
		0.333333 0.333333 0.333333
		0.0015361 0.333333 0.665131
		0.000231321 0.999537 0.000231321
		0.333333 0.333333 0.333333
		0.000355745 0.999289 0.000355745
		0.333333 0.333333 0.333333
		0.333333 0.333333 0.333333
		0.998153 0.000923361 0.000923361
		0.999513 0.000243487 0.000243487
		0.333333 0.333333 0.333333
		0.00456621 0.990868 0.00456621
		0.000177968 0.999644 0.000177968
		0.333333 0.333333 0.333333
		0.333333 0.333333 0.333333
		0.333333 0.333333 0.333333
		0.333333 0.333333 0.333333
		0.333333 0.333333 0.333333
		0.333333 0.333333 0.333333
		0.333333 0.333333 0.333333
		0.990868 0.00456621 0.00456621
		0.333333 0.333333 0.333333
		0.333333 0.333333 0.333333
		0.333333 0.333333 0.333333
		0.333333 0.333333 0.333333
		0.333333 0.333333 0.333333
		0.998845 0.000577701 0.000577701
		0.333333 0.333333 0.333333
		0.333333 0.333333 0.333333
	</TABLE>
</DEFINITION>

</NETWORK>
</BIF>
