<?xml version="1.0" ?>

<BIF VERSION="0.3">
<NETWORK>
<NAME>unnamedBN</NAME>
<PROPERTY>software aGrUM</PROPERTY>

<!-- Variables -->
<VARIABLE TYPE="nature">
	<NAME>location</NAME>
	<PROPERTY></PROPERTY>
	<OUTCOME>v2</OUTCOME>
	<OUTCOME>v5</OUTCOME>
</VARIABLE>

<VARIABLE TYPE="nature">
	<NAME>r</NAME>
	<PROPERTY></PROPERTY>
	<OUTCOME>6</OUTCOME>
</VARIABLE>

<VARIABLE TYPE="nature">
	<NAME>v3_door</NAME>
	<PROPERTY></PROPERTY>
	<OUTCOME>closed</OUTCOME>
	<OUTCOME>open</OUTCOME>
	<OUTCOME>unknown</OUTCOME>
</VARIABLE>

<VARIABLE TYPE="nature">
	<NAME>v4_door</NAME>
	<PROPERTY></PROPERTY>
	<OUTCOME>closed</OUTCOME>
	<OUTCOME>open</OUTCOME>
	<OUTCOME>unknown</OUTCOME>
</VARIABLE>

<VARIABLE TYPE="nature">
	<NAME>v5_door</NAME>
	<PROPERTY></PROPERTY>
	<OUTCOME>closed</OUTCOME>
	<OUTCOME>open</OUTCOME>
	<OUTCOME>unknown</OUTCOME>
</VARIABLE>

<VARIABLE TYPE="nature">
	<NAME>v6_door</NAME>
	<PROPERTY></PROPERTY>
	<OUTCOME>closed</OUTCOME>
	<OUTCOME>open</OUTCOME>
	<OUTCOME>unknown</OUTCOME>
</VARIABLE>

<VARIABLE TYPE="nature">
	<NAME>v7_door</NAME>
	<PROPERTY></PROPERTY>
	<OUTCOME>closed</OUTCOME>
	<OUTCOME>open</OUTCOME>
	<OUTCOME>unknown</OUTCOME>
</VARIABLE>

<!-- Probability distributions -->
<DEFINITION>
	<FOR>location</FOR>
	<TABLE>
		0.504695 0.495305
	</TABLE>
</DEFINITION>
<DEFINITION>
	<FOR>r</FOR>
	<GIVEN>v6_door</GIVEN>
	<GIVEN>v3_door</GIVEN>
	<GIVEN>v7_door</GIVEN>
	<GIVEN>v5_door</GIVEN>
	<GIVEN>location</GIVEN>
	<GIVEN>v4_door</GIVEN>
	<TABLE>
		1
		1
		1
		1
		1
		1
		1
		1
		1
		1
		1
		1
		1
		1
		1
		1
		1
		1
		1
		1
		1
		1
		1
		1
		1
		1
		1
		1
		1
		1
		1
		1
		1
		1
		1
		1
		1
		1
		1
		1
		1
		1
		1
		1
		1
		1
		1
		1
		1
		1
		1
		1
		1
		1
		1
		1
		1
		1
		1
		1
		1
		1
		1
		1
		1
		1
		1
		1
		1
		1
		1
		1
		1
		1
		1
		1
		1
		1
		1
		1
		1
		1
		1
		1
		1
		1
		1
		1
		1
		1
		1
		1
		1
		1
		1
		1
		1
		1
		1
		1
		1
		1
		1
		1
		1
		1
		1
		1
		1
		1
		1
		1
		1
		1
		1
		1
		1
		1
		1
		1
		1
		1
		1
		1
		1
		1
		1
		1
		1
		1
		1
		1
		1
		1
		1
		1
		1
		1
		1
		1
		1
		1
		1
		1
		1
		1
		1
		1
		1
		1
		1
		1
		1
		1
		1
		1
		1
		1
		1
		1
		1
		1
		1
		1
		1
		1
		1
		1
		1
		1
		1
		1
		1
		1
		1
		1
		1
		1
		1
		1
		1
		1
		1
		1
		1
		1
		1
		1
		1
		1
		1
		1
		1
		1
		1
		1
		1
		1
		1
		1
		1
		1
		1
		1
		1
		1
		1
		1
		1
		1
		1
		1
		1
		1
		1
		1
		1
		1
		1
		1
		1
		1
		1
		1
		1
		1
		1
		1
		1
		1
		1
		1
		1
		1
		1
		1
		1
		1
		1
		1
		1
		1
		1
		1
		1
		1
		1
		1
		1
		1
		1
		1
		1
		1
		1
		1
		1
		1
		1
		1
		1
		1
		1
		1
		1
		1
		1
		1
		1
		1
		1
		1
		1
		1
		1
		1
		1
		1
		1
		1
		1
		1
		1
		1
		1
		1
		1
		1
		1
		1
		1
		1
		1
		1
		1
		1
		1
		1
		1
		1
		1
		1
		1
		1
		1
		1
		1
		1
		1
		1
		1
		1
		1
		1
		1
		1
		1
		1
		1
		1
		1
		1
		1
		1
		1
		1
		1
		1
		1
		1
		1
		1
		1
		1
		1
		1
		1
		1
		1
		1
		1
		1
		1
		1
		1
		1
		1
		1
		1
		1
		1
		1
		1
		1
		1
		1
		1
		1
		1
		1
		1
		1
		1
		1
		1
		1
		1
		1
		1
		1
		1
		1
		1
		1
		1
		1
		1
		1
		1
		1
		1
		1
		1
		1
		1
		1
		1
		1
		1
		1
		1
		1
		1
		1
		1
		1
		1
		1
		1
		1
		1
		1
		1
		1
		1
		1
		1
		1
		1
		1
		1
		1
		1
		1
		1
		1
		1
		1
		1
		1
		1
		1
		1
		1
		1
		1
		1
		1
		1
		1
		1
		1
		1
		1
		1
		1
		1
		1
		1
		1
		1
		1
		1
		1
		1
		1
		1
		1
		1
		1
		1
		1
		1
		1
		1
		1
		1
		1
		1
		1
		1
		1
		1
		1
		1
		1
		1
		1
		1
		1
		1
		1
		1
		1
		1
		1
		1
		1
		1
		1
		1
		1
		1
		1
		1
		1
	</TABLE>
</DEFINITION>
<DEFINITION>
	<FOR>v3_door</FOR>
	<TABLE>
		0.0485133 0.926448 0.0250391
	</TABLE>
</DEFINITION>
<DEFINITION>
	<FOR>v4_door</FOR>
	<TABLE>
		0.264476 0.27856 0.456964
	</TABLE>
</DEFINITION>
<DEFINITION>
	<FOR>v5_door</FOR>
	<TABLE>
		0.259781 0.255086 0.485133
	</TABLE>
</DEFINITION>
<DEFINITION>
	<FOR>v6_door</FOR>
	<TABLE>
		0.0532081 0.644757 0.302034
	</TABLE>
</DEFINITION>
<DEFINITION>
	<FOR>v7_door</FOR>
	<TABLE>
		0.43349 0.255086 0.311424
	</TABLE>
</DEFINITION>

</NETWORK>
</BIF>
