<?xml version="1.0" ?>

<BIF VERSION="0.3">
<NETWORK>
<NAME>unnamedBN</NAME>
<PROPERTY>software aGrUM</PROPERTY>

<!-- Variables -->
<VARIABLE TYPE="nature">
	<NAME>location0</NAME>
	<PROPERTY></PROPERTY>
	<OUTCOME>v10</OUTCOME>
	<OUTCOME>v11</OUTCOME>
	<OUTCOME>v2</OUTCOME>
	<OUTCOME>v7</OUTCOME>
</VARIABLE>

<VARIABLE TYPE="nature">
	<NAME>wire_at_v20</NAME>
	<PROPERTY></PROPERTY>
	<OUTCOME>no</OUTCOME>
	<OUTCOME>unknown</OUTCOME>
</VARIABLE>

<VARIABLE TYPE="nature">
	<NAME>wire_at_v2t</NAME>
	<PROPERTY></PROPERTY>
	<OUTCOME>no</OUTCOME>
	<OUTCOME>unknown</OUTCOME>
	<OUTCOME>yes</OUTCOME>
</VARIABLE>

<VARIABLE TYPE="nature">
	<NAME>wire_at_v70</NAME>
	<PROPERTY></PROPERTY>
	<OUTCOME>no</OUTCOME>
	<OUTCOME>unknown</OUTCOME>
</VARIABLE>

<VARIABLE TYPE="nature">
	<NAME>wire_at_v7t</NAME>
	<PROPERTY></PROPERTY>
	<OUTCOME>no</OUTCOME>
	<OUTCOME>unknown</OUTCOME>
	<OUTCOME>yes</OUTCOME>
</VARIABLE>

<VARIABLE TYPE="nature">
	<NAME>wire_at_v100</NAME>
	<PROPERTY></PROPERTY>
	<OUTCOME>no</OUTCOME>
	<OUTCOME>unknown</OUTCOME>
</VARIABLE>

<VARIABLE TYPE="nature">
	<NAME>wire_at_v10t</NAME>
	<PROPERTY></PROPERTY>
	<OUTCOME>no</OUTCOME>
	<OUTCOME>unknown</OUTCOME>
	<OUTCOME>yes</OUTCOME>
</VARIABLE>

<VARIABLE TYPE="nature">
	<NAME>wire_at_v110</NAME>
	<PROPERTY></PROPERTY>
	<OUTCOME>no</OUTCOME>
	<OUTCOME>unknown</OUTCOME>
</VARIABLE>

<VARIABLE TYPE="nature">
	<NAME>wire_at_v11t</NAME>
	<PROPERTY></PROPERTY>
	<OUTCOME>no</OUTCOME>
	<OUTCOME>unknown</OUTCOME>
	<OUTCOME>yes</OUTCOME>
</VARIABLE>

<!-- Probability distributions -->
<DEFINITION>
	<FOR>location0</FOR>
	<TABLE>
		0.17446 0.203237 0.318345 0.303957
	</TABLE>
</DEFINITION>
<DEFINITION>
	<FOR>wire_at_v20</FOR>
	<TABLE>
		0.377698 0.622302
	</TABLE>
</DEFINITION>
<DEFINITION>
	<FOR>wire_at_v2t</FOR>
	<GIVEN>wire_at_v11t</GIVEN>
	<GIVEN>wire_at_v10t</GIVEN>
	<GIVEN>location0</GIVEN>
	<GIVEN>wire_at_v20</GIVEN>
	<TABLE>
		0.333333 0.333333 0.333333
		0.00456621 0.00456621 0.990868
		0.990868 0.00456621 0.00456621
		0.00456621 0.00456621 0.990868
		0.333333 0.333333 0.333333
		0.00229885 0.00229885 0.995402
		0.996928 0.0015361 0.0015361
		0.996928 0.0015361 0.0015361
		0.333333 0.333333 0.333333
		0.333333 0.333333 0.333333
		0.990868 0.00456621 0.00456621
		0.000660066 0.99868 0.000660066
		0.333333 0.333333 0.333333
		0.333333 0.333333 0.333333
		0.333333 0.333333 0.333333
		0.00456621 0.990868 0.00456621
		0.999159 0.000420345 0.000420345
		0.99846 0.000769823 0.000769823
		0.998973 0.000513611 0.000513611
		0.333333 0.333333 0.333333
		0.333333 0.333333 0.333333
		0.995402 0.00229885 0.00229885
		0.333333 0.333333 0.333333
		0.333333 0.333333 0.333333
		0.996928 0.0015361 0.0015361
		0.00229885 0.995402 0.00229885
		0.333333 0.333333 0.333333
		0.333333 0.333333 0.333333
		0.333333 0.333333 0.333333
		0.333333 0.333333 0.333333
		0.333333 0.333333 0.333333
		0.00456621 0.990868 0.00456621
		0.333333 0.333333 0.333333
		0.333333 0.333333 0.333333
		0.333333 0.333333 0.333333
		0.333333 0.333333 0.333333
		0.333333 0.333333 0.333333
		0.999769 0.000115701 0.000115701
		0.999456 0.000272109 0.000272109
		0.000289101 0.999422 0.000289101
		0.333333 0.333333 0.333333
		0.333333 0.333333 0.333333
		0.333333 0.333333 0.333333
		0.333333 0.333333 0.333333
		0.333333 0.333333 0.333333
		0.333333 0.333333 0.333333
		0.333333 0.333333 0.333333
		0.333333 0.333333 0.333333
		0.990868 0.00456621 0.00456621
		0.333333 0.333333 0.333333
		0.998153 0.000923361 0.000923361
		0.997693 0.0011534 0.0011534
		0.333333 0.333333 0.333333
		0.333333 0.333333 0.333333
		0.990868 0.00456621 0.00456621
		0.333333 0.333333 0.333333
		0.333333 0.333333 0.333333
		0.333333 0.333333 0.333333
		0.333333 0.333333 0.333333
		0.333333 0.333333 0.333333
		0.333333 0.333333 0.333333
		0.333333 0.333333 0.333333
		0.333333 0.333333 0.333333
		0.333333 0.333333 0.333333
		0.333333 0.333333 0.333333
		0.333333 0.333333 0.333333
		0.333333 0.333333 0.333333
		0.333333 0.333333 0.333333
		0.333333 0.333333 0.333333
		0.333333 0.333333 0.333333
		0.333333 0.333333 0.333333
		0.333333 0.333333 0.333333
	</TABLE>
</DEFINITION>
<DEFINITION>
	<FOR>wire_at_v70</FOR>
	<TABLE>
		0.276978 0.723022
	</TABLE>
</DEFINITION>
<DEFINITION>
	<FOR>wire_at_v7t</FOR>
	<GIVEN>wire_at_v70</GIVEN>
	<GIVEN>wire_at_v11t</GIVEN>
	<GIVEN>wire_at_v10t</GIVEN>
	<GIVEN>location0</GIVEN>
	<TABLE>
		0.990868 0.00456621 0.00456621
		0.990868 0.00456621 0.00456621
		0.333333 0.333333 0.333333
		0.333333 0.333333 0.333333
		0.333333 0.333333 0.333333
		0.997693 0.0011534 0.0011534
		0.333333 0.333333 0.333333
		0.333333 0.333333 0.333333
		0.998973 0.000513611 0.000513611
		0.998973 0.000513611 0.000513611
		0.995402 0.00229885 0.00229885
		0.333333 0.333333 0.333333
		0.990868 0.00456621 0.00456621
		0.333333 0.333333 0.333333
		0.333333 0.333333 0.333333
		0.333333 0.333333 0.333333
		0.333333 0.333333 0.333333
		0.333333 0.333333 0.333333
		0.99868 0.000660066 0.000660066
		0.333333 0.333333 0.333333
		0.333333 0.333333 0.333333
		0.333333 0.333333 0.333333
		0.333333 0.333333 0.333333
		0.333333 0.333333 0.333333
		0.990868 0.00456621 0.00456621
		0.996928 0.0015361 0.0015361
		0.333333 0.333333 0.333333
		0.333333 0.333333 0.333333
		0.333333 0.333333 0.333333
		0.333333 0.333333 0.333333
		0.333333 0.333333 0.333333
		0.333333 0.333333 0.333333
		0.333333 0.333333 0.333333
		0.333333 0.333333 0.333333
		0.333333 0.333333 0.333333
		0.333333 0.333333 0.333333
		0.333333 0.333333 0.333333
		0.00456621 0.00456621 0.990868
		0.995402 0.00229885 0.00229885
		0.000769823 0.000769823 0.99846
		0.333333 0.333333 0.333333
		0.0011534 0.997693 0.0011534
		0.333333 0.333333 0.333333
		0.990868 0.00456621 0.00456621
		0.998845 0.000577701 0.000577701
		0.333333 0.333333 0.333333
		0.333333 0.333333 0.333333
		0.333333 0.333333 0.333333
		0.0011534 0.997693 0.0011534
		0.333333 0.333333 0.333333
		0.333333 0.333333 0.333333
		0.990868 0.00456621 0.00456621
		0.333333 0.333333 0.333333
		0.333333 0.333333 0.333333
		0.000140233 0.99972 0.000140233
		0.99972 0.000140233 0.000140233
		0.333333 0.333333 0.333333
		0.333333 0.333333 0.333333
		0.333333 0.333333 0.333333
		0.333333 0.333333 0.333333
		0.333333 0.333333 0.333333
		0.99846 0.000769823 0.000769823
		0.333333 0.333333 0.333333
		0.990868 0.00456621 0.00456621
		0.333333 0.333333 0.333333
		0.333333 0.333333 0.333333
		0.333333 0.333333 0.333333
		0.333333 0.333333 0.333333
		0.333333 0.333333 0.333333
		0.333333 0.333333 0.333333
		0.333333 0.333333 0.333333
		0.333333 0.333333 0.333333
	</TABLE>
</DEFINITION>
<DEFINITION>
	<FOR>wire_at_v100</FOR>
	<TABLE>
		0.0395683 0.960432
	</TABLE>
</DEFINITION>
<DEFINITION>
	<FOR>wire_at_v10t</FOR>
	<GIVEN>location0</GIVEN>
	<GIVEN>wire_at_v11t</GIVEN>
	<GIVEN>wire_at_v100</GIVEN>
	<GIVEN>wire_at_v110</GIVEN>
	<GIVEN>wire_at_v20</GIVEN>
	<TABLE>
		0.333333 0.333333 0.333333
		0.333333 0.333333 0.333333
		0.333333 0.333333 0.333333
		0.333333 0.333333 0.333333
		0.333333 0.333333 0.333333
		0.250216 0.000865801 0.748918
		0.000315358 0.000315358 0.999369
		0.0011534 0.0011534 0.997693
		0.333333 0.333333 0.333333
		0.333333 0.333333 0.333333
		0.333333 0.333333 0.333333
		0.333333 0.333333 0.333333
		0.333333 0.333333 0.333333
		0.333333 0.333333 0.333333
		0.997693 0.0011534 0.0011534
		0.996546 0.00172712 0.00172712
		0.333333 0.333333 0.333333
		0.333333 0.333333 0.333333
		0.333333 0.333333 0.333333
		0.333333 0.333333 0.333333
		0.333333 0.333333 0.333333
		0.333333 0.333333 0.333333
		0.993127 0.00343643 0.00343643
		0.333333 0.333333 0.333333
		0.333333 0.333333 0.333333
		0.333333 0.333333 0.333333
		0.993127 0.00343643 0.00343643
		0.993127 0.00343643 0.00343643
		0.333333 0.333333 0.333333
		0.333333 0.333333 0.333333
		0.000346861 0.100243 0.89941
		0.000495295 0.999009 0.000495295
		0.333333 0.333333 0.333333
		0.333333 0.333333 0.333333
		0.333333 0.333333 0.333333
		0.333333 0.333333 0.333333
		0.333333 0.333333 0.333333
		0.333333 0.333333 0.333333
		0.333333 0.333333 0.333333
		0.333333 0.333333 0.333333
		0.333333 0.333333 0.333333
		0.333333 0.333333 0.333333
		0.993127 0.00343643 0.00343643
		0.333333 0.333333 0.333333
		0.333333 0.333333 0.333333
		0.333333 0.333333 0.333333
		0.998268 0.000865801 0.000865801
		0.998268 0.000865801 0.000865801
		0.333333 0.333333 0.333333
		0.333333 0.333333 0.333333
		0.333333 0.333333 0.333333
		0.333333 0.333333 0.333333
		0.333333 0.333333 0.333333
		0.00172712 0.00172712 0.996546
		0.333333 0.333333 0.333333
		0.996546 0.00172712 0.00172712
		0.333333 0.333333 0.333333
		0.333333 0.333333 0.333333
		0.333333 0.333333 0.333333
		0.333333 0.333333 0.333333
		0.333333 0.333333 0.333333
		0.333333 0.333333 0.333333
		0.333333 0.333333 0.333333
		8.6783e-05 0.999826 8.6783e-05
		0.333333 0.333333 0.333333
		0.333333 0.333333 0.333333
		0.333333 0.333333 0.333333
		0.333333 0.333333 0.333333
		0.333333 0.333333 0.333333
		0.333333 0.333333 0.333333
		0.333333 0.333333 0.333333
		0.333333 0.333333 0.333333
		0.333333 0.333333 0.333333
		0.333333 0.333333 0.333333
		0.333333 0.333333 0.333333
		0.333333 0.333333 0.333333
		0.993127 0.00343643 0.00343643
		0.00343643 0.993127 0.00343643
		0.996546 0.00172712 0.00172712
		0.997693 0.0011534 0.0011534
		0.333333 0.333333 0.333333
		0.333333 0.333333 0.333333
		0.333333 0.333333 0.333333
		0.993127 0.00343643 0.00343643
		0.333333 0.333333 0.333333
		0.333333 0.333333 0.333333
		0.000204123 0.999592 0.000204123
		0.000216873 0.999566 0.000216873
		0.333333 0.333333 0.333333
		0.333333 0.333333 0.333333
		0.993127 0.00343643 0.00343643
		0.333333 0.333333 0.333333
		0.333333 0.333333 0.333333
		0.333333 0.333333 0.333333
		0.333333 0.333333 0.333333
		0.333333 0.333333 0.333333
	</TABLE>
</DEFINITION>
<DEFINITION>
	<FOR>wire_at_v110</FOR>
	<TABLE>
		0.0611511 0.938849
	</TABLE>
</DEFINITION>
<DEFINITION>
	<FOR>wire_at_v11t</FOR>
	<GIVEN>wire_at_v110</GIVEN>
	<GIVEN>location0</GIVEN>
	<TABLE>
		0.979798 0.010101 0.010101
		0.333333 0.333333 0.333333
		0.960784 0.0196078 0.0196078
		0.960784 0.0196078 0.0196078
		0.697723 0.250518 0.0517598
		0.677037 0.00148148 0.321481
		0.0484669 0.950544 0.00098912
		0.125649 0.84839 0.0259605
	</TABLE>
</DEFINITION>

</NETWORK>
</BIF>
