<?xml version="1.0" ?>

<BIF VERSION="0.3">
<NETWORK>
<NAME>unnamedBN</NAME>
<PROPERTY>software aGrUM</PROPERTY>

<!-- Variables -->
<VARIABLE TYPE="nature">
	<NAME>location</NAME>
	<PROPERTY></PROPERTY>
	<OUTCOME>v2</OUTCOME>
	<OUTCOME>v5</OUTCOME>
</VARIABLE>

<VARIABLE TYPE="nature">
	<NAME>r</NAME>
	<PROPERTY></PROPERTY>
	<OUTCOME>6</OUTCOME>
</VARIABLE>

<VARIABLE TYPE="nature">
	<NAME>v3_door</NAME>
	<PROPERTY></PROPERTY>
	<OUTCOME>closed</OUTCOME>
	<OUTCOME>open</OUTCOME>
	<OUTCOME>unknown</OUTCOME>
</VARIABLE>

<VARIABLE TYPE="nature">
	<NAME>v4_door</NAME>
	<PROPERTY></PROPERTY>
	<OUTCOME>closed</OUTCOME>
	<OUTCOME>open</OUTCOME>
	<OUTCOME>unknown</OUTCOME>
</VARIABLE>

<VARIABLE TYPE="nature">
	<NAME>v5_door</NAME>
	<PROPERTY></PROPERTY>
	<OUTCOME>closed</OUTCOME>
	<OUTCOME>open</OUTCOME>
	<OUTCOME>unknown</OUTCOME>
</VARIABLE>

<VARIABLE TYPE="nature">
	<NAME>v6_door</NAME>
	<PROPERTY></PROPERTY>
	<OUTCOME>closed</OUTCOME>
	<OUTCOME>open</OUTCOME>
	<OUTCOME>unknown</OUTCOME>
</VARIABLE>

<VARIABLE TYPE="nature">
	<NAME>v7_door</NAME>
	<PROPERTY></PROPERTY>
	<OUTCOME>closed</OUTCOME>
	<OUTCOME>open</OUTCOME>
	<OUTCOME>unknown</OUTCOME>
</VARIABLE>

<!-- Probability distributions -->
<DEFINITION>
	<FOR>location</FOR>
	<TABLE>
		0.502358 0.497642
	</TABLE>
</DEFINITION>
<DEFINITION>
	<FOR>r</FOR>
	<GIVEN>v5_door</GIVEN>
	<GIVEN>v6_door</GIVEN>
	<GIVEN>v7_door</GIVEN>
	<GIVEN>v4_door</GIVEN>
	<GIVEN>location</GIVEN>
	<GIVEN>v3_door</GIVEN>
	<TABLE>
		1
		1
		1
		1
		1
		1
		1
		1
		1
		1
		1
		1
		1
		1
		1
		1
		1
		1
		1
		1
		1
		1
		1
		1
		1
		1
		1
		1
		1
		1
		1
		1
		1
		1
		1
		1
		1
		1
		1
		1
		1
		1
		1
		1
		1
		1
		1
		1
		1
		1
		1
		1
		1
		1
		1
		1
		1
		1
		1
		1
		1
		1
		1
		1
		1
		1
		1
		1
		1
		1
		1
		1
		1
		1
		1
		1
		1
		1
		1
		1
		1
		1
		1
		1
		1
		1
		1
		1
		1
		1
		1
		1
		1
		1
		1
		1
		1
		1
		1
		1
		1
		1
		1
		1
		1
		1
		1
		1
		1
		1
		1
		1
		1
		1
		1
		1
		1
		1
		1
		1
		1
		1
		1
		1
		1
		1
		1
		1
		1
		1
		1
		1
		1
		1
		1
		1
		1
		1
		1
		1
		1
		1
		1
		1
		1
		1
		1
		1
		1
		1
		1
		1
		1
		1
		1
		1
		1
		1
		1
		1
		1
		1
		1
		1
		1
		1
		1
		1
		1
		1
		1
		1
		1
		1
		1
		1
		1
		1
		1
		1
		1
		1
		1
		1
		1
		1
		1
		1
		1
		1
		1
		1
		1
		1
		1
		1
		1
		1
		1
		1
		1
		1
		1
		1
		1
		1
		1
		1
		1
		1
		1
		1
		1
		1
		1
		1
		1
		1
		1
		1
		1
		1
		1
		1
		1
		1
		1
		1
		1
		1
		1
		1
		1
		1
		1
		1
		1
		1
		1
		1
		1
		1
		1
		1
		1
		1
		1
		1
		1
		1
		1
		1
		1
		1
		1
		1
		1
		1
		1
		1
		1
		1
		1
		1
		1
		1
		1
		1
		1
		1
		1
		1
		1
		1
		1
		1
		1
		1
		1
		1
		1
		1
		1
		1
		1
		1
		1
		1
		1
		1
		1
		1
		1
		1
		1
		1
		1
		1
		1
		1
		1
		1
		1
		1
		1
		1
		1
		1
		1
		1
		1
		1
		1
		1
		1
		1
		1
		1
		1
		1
		1
		1
		1
		1
		1
		1
		1
		1
		1
		1
		1
		1
		1
		1
		1
		1
		1
		1
		1
		1
		1
		1
		1
		1
		1
		1
		1
		1
		1
		1
		1
		1
		1
		1
		1
		1
		1
		1
		1
		1
		1
		1
		1
		1
		1
		1
		1
		1
		1
		1
		1
		1
		1
		1
		1
		1
		1
		1
		1
		1
		1
		1
		1
		1
		1
		1
		1
		1
		1
		1
		1
		1
		1
		1
		1
		1
		1
		1
		1
		1
		1
		1
		1
		1
		1
		1
		1
		1
		1
		1
		1
		1
		1
		1
		1
		1
		1
		1
		1
		1
		1
		1
		1
		1
		1
		1
		1
		1
		1
		1
		1
		1
		1
		1
		1
		1
		1
		1
		1
		1
		1
		1
		1
		1
		1
		1
		1
		1
		1
		1
		1
		1
		1
		1
		1
		1
		1
		1
		1
		1
		1
		1
		1
		1
		1
		1
		1
		1
		1
		1
		1
		1
		1
		1
		1
		1
		1
		1
		1
		1
		1
		1
		1
		1
		1
		1
	</TABLE>
</DEFINITION>
<DEFINITION>
	<FOR>v3_door</FOR>
	<TABLE>
		0.0487421 0.930818 0.0204403
	</TABLE>
</DEFINITION>
<DEFINITION>
	<FOR>v4_door</FOR>
	<TABLE>
		0.265723 0.279874 0.454403
	</TABLE>
</DEFINITION>
<DEFINITION>
	<FOR>v5_door</FOR>
	<TABLE>
		0.261006 0.256289 0.482704
	</TABLE>
</DEFINITION>
<DEFINITION>
	<FOR>v6_door</FOR>
	<TABLE>
		0.0534591 0.647799 0.298742
	</TABLE>
</DEFINITION>
<DEFINITION>
	<FOR>v7_door</FOR>
	<TABLE>
		0.435535 0.256289 0.308176
	</TABLE>
</DEFINITION>

</NETWORK>
</BIF>
