<?xml version="1.0" ?>

<BIF VERSION="0.3">
<NETWORK>
<NAME>unnamedBN</NAME>
<PROPERTY>software aGrUM</PROPERTY>

<!-- Variables -->
<VARIABLE TYPE="nature">
	<NAME>location0</NAME>
	<PROPERTY></PROPERTY>
	<OUTCOME>v10</OUTCOME>
	<OUTCOME>v11</OUTCOME>
	<OUTCOME>v2</OUTCOME>
	<OUTCOME>v7</OUTCOME>
</VARIABLE>

<VARIABLE TYPE="nature">
	<NAME>wire_at_v20</NAME>
	<PROPERTY></PROPERTY>
	<OUTCOME>no</OUTCOME>
	<OUTCOME>unknown</OUTCOME>
</VARIABLE>

<VARIABLE TYPE="nature">
	<NAME>wire_at_v2t</NAME>
	<PROPERTY></PROPERTY>
	<OUTCOME>no</OUTCOME>
	<OUTCOME>unknown</OUTCOME>
	<OUTCOME>yes</OUTCOME>
</VARIABLE>

<VARIABLE TYPE="nature">
	<NAME>wire_at_v70</NAME>
	<PROPERTY></PROPERTY>
	<OUTCOME>no</OUTCOME>
	<OUTCOME>unknown</OUTCOME>
</VARIABLE>

<VARIABLE TYPE="nature">
	<NAME>wire_at_v7t</NAME>
	<PROPERTY></PROPERTY>
	<OUTCOME>no</OUTCOME>
	<OUTCOME>unknown</OUTCOME>
	<OUTCOME>yes</OUTCOME>
</VARIABLE>

<VARIABLE TYPE="nature">
	<NAME>wire_at_v100</NAME>
	<PROPERTY></PROPERTY>
	<OUTCOME>no</OUTCOME>
	<OUTCOME>unknown</OUTCOME>
</VARIABLE>

<VARIABLE TYPE="nature">
	<NAME>wire_at_v10t</NAME>
	<PROPERTY></PROPERTY>
	<OUTCOME>no</OUTCOME>
	<OUTCOME>unknown</OUTCOME>
	<OUTCOME>yes</OUTCOME>
</VARIABLE>

<VARIABLE TYPE="nature">
	<NAME>wire_at_v110</NAME>
	<PROPERTY></PROPERTY>
	<OUTCOME>no</OUTCOME>
	<OUTCOME>unknown</OUTCOME>
</VARIABLE>

<VARIABLE TYPE="nature">
	<NAME>wire_at_v11t</NAME>
	<PROPERTY></PROPERTY>
	<OUTCOME>no</OUTCOME>
	<OUTCOME>unknown</OUTCOME>
	<OUTCOME>yes</OUTCOME>
</VARIABLE>

<!-- Probability distributions -->
<DEFINITION>
	<FOR>location0</FOR>
	<TABLE>
		0.227807 0.248695 0.269582 0.253916
	</TABLE>
</DEFINITION>
<DEFINITION>
	<FOR>wire_at_v20</FOR>
	<TABLE>
		0.306789 0.693211
	</TABLE>
</DEFINITION>
<DEFINITION>
	<FOR>wire_at_v2t</FOR>
	<GIVEN>wire_at_v7t</GIVEN>
	<GIVEN>location0</GIVEN>
	<GIVEN>wire_at_v10t</GIVEN>
	<GIVEN>wire_at_v20</GIVEN>
	<TABLE>
		0.998153 0.000923361 0.000923361
		0.0015361 0.665131 0.333333
		0.333333 0.333333 0.333333
		0.333333 0.333333 0.333333
		0.99963 0.000185082 0.000185082
		0.999559 0.000220313 0.000220313
		0.999075 0.000462321 0.000462321
		0.94068 0.000272109 0.0590476
		0.333333 0.333333 0.333333
		0.0015361 0.996928 0.0015361
		0.999383 0.000308356 0.000308356
		0.333333 0.333333 0.333333
		0.333333 0.333333 0.333333
		0.133518 0.000308356 0.866173
		0.333333 0.333333 0.333333
		0.999456 0.000272109 0.000272109
		0.333333 0.333333 0.333333
		0.996928 0.0015361 0.0015361
		0.997693 0.0011534 0.0011534
		0.000923361 0.798707 0.200369
		0.999383 0.000308356 0.000308356
		0.000118666 0.999763 0.000118666
		0.999229 0.000385356 0.000385356
		0.333333 0.333333 0.333333
		0.998845 0.000577701 0.000577701
		0.00019279 0.999614 0.00019279
		0.333333 0.333333 0.333333
		0.333333 0.333333 0.333333
		0.333333 0.333333 0.333333
		0.333333 0.333333 0.333333
		0.333333 0.333333 0.333333
		0.000577701 0.998845 0.000577701
		0.999289 0.000355745 0.000355745
		0.00017138 0.999657 0.00017138
		0.333333 0.333333 0.333333
		0.333333 0.333333 0.333333
		0.333333 0.333333 0.333333
		0.997693 0.0011534 0.0011534
		0.333333 0.333333 0.333333
		0.999851 7.46547e-05 7.46547e-05
		0.333333 0.333333 0.333333
		0.333333 0.333333 0.333333
		0.333333 0.333333 0.333333
		0.333333 0.333333 0.333333
		0.333333 0.333333 0.333333
		0.333333 0.333333 0.333333
		0.333333 0.333333 0.333333
		0.333333 0.333333 0.333333
		0.990868 0.00456621 0.00456621
		0.333333 0.333333 0.333333
		0.333333 0.333333 0.333333
		0.333333 0.333333 0.333333
		0.333333 0.333333 0.333333
		0.333333 0.333333 0.333333
		0.995402 0.00229885 0.00229885
		0.333333 0.333333 0.333333
		0.333333 0.333333 0.333333
		0.333333 0.333333 0.333333
		0.333333 0.333333 0.333333
		0.333333 0.333333 0.333333
		0.333333 0.333333 0.333333
		0.995402 0.00229885 0.00229885
		0.333333 0.333333 0.333333
		0.333333 0.333333 0.333333
		0.333333 0.333333 0.333333
		0.333333 0.333333 0.333333
		0.99868 0.000660066 0.000660066
		0.999383 0.000308356 0.000308356
		0.333333 0.333333 0.333333
		0.333333 0.333333 0.333333
		0.333333 0.333333 0.333333
		0.333333 0.333333 0.333333
	</TABLE>
</DEFINITION>
<DEFINITION>
	<FOR>wire_at_v70</FOR>
	<TABLE>
		0.207572 0.792428
	</TABLE>
</DEFINITION>
<DEFINITION>
	<FOR>wire_at_v7t</FOR>
	<GIVEN>wire_at_v70</GIVEN>
	<GIVEN>wire_at_v100</GIVEN>
	<GIVEN>location0</GIVEN>
	<TABLE>
		0.333333 0.333333 0.333333
		0.989744 0.00512821 0.00512821
		0.979798 0.010101 0.010101
		0.333333 0.333333 0.333333
		0.998111 0.000944287 0.000944287
		0.998515 0.00074239 0.00074239
		0.998193 0.000903342 0.000903342
		0.333333 0.333333 0.333333
		0.333333 0.333333 0.333333
		0.285926 0.57037 0.143704
		0.499136 0.333333 0.16753
		0.499423 0.0011534 0.499423
		0.492155 0.492155 0.01569
		0.183864 0.815711 0.000424628
		0.0608641 0.938821 0.000315358
		0.835046 0.000263505 0.16469
	</TABLE>
</DEFINITION>
<DEFINITION>
	<FOR>wire_at_v100</FOR>
	<TABLE>
		0.131854 0.868146
	</TABLE>
</DEFINITION>
<DEFINITION>
	<FOR>wire_at_v10t</FOR>
	<GIVEN>location0</GIVEN>
	<GIVEN>wire_at_v7t</GIVEN>
	<GIVEN>wire_at_v100</GIVEN>
	<GIVEN>wire_at_v70</GIVEN>
	<GIVEN>wire_at_v110</GIVEN>
	<GIVEN>wire_at_v20</GIVEN>
	<TABLE>
		0.333333 0.333333 0.333333
		0.333333 0.333333 0.333333
		0.333333 0.333333 0.333333
		0.333333 0.333333 0.333333
		0.333333 0.333333 0.333333
		0.333333 0.333333 0.333333
		0.333333 0.333333 0.333333
		0.333333 0.333333 0.333333
		0.333333 0.333333 0.333333
		0.250108 0.000433463 0.749458
		0.384595 0.000133494 0.615272
		0.399931 0.000346861 0.599723
		0.00019279 0.00019279 0.999614
		0.000346861 0.000346861 0.999306
		0.000216873 0.000216873 0.999566
		0.000173521 0.000173521 0.999653
		0.333333 0.333333 0.333333
		0.333333 0.333333 0.333333
		0.333333 0.333333 0.333333
		0.333333 0.333333 0.333333
		0.333333 0.333333 0.333333
		0.333333 0.333333 0.333333
		0.333333 0.333333 0.333333
		0.333333 0.333333 0.333333
		0.333333 0.333333 0.333333
		0.333333 0.333333 0.333333
		0.333333 0.333333 0.333333
		0.333333 0.333333 0.333333
		0.333333 0.333333 0.333333
		0.998268 0.000865801 0.000865801
		0.999566 0.000216873 0.000216873
		0.999842 7.88955e-05 7.88955e-05
		0.333333 0.333333 0.333333
		0.333333 0.333333 0.333333
		0.333333 0.333333 0.333333
		0.333333 0.333333 0.333333
		0.333333 0.333333 0.333333
		0.333333 0.333333 0.333333
		0.333333 0.333333 0.333333
		0.333333 0.333333 0.333333
		0.333333 0.333333 0.333333
		0.333333 0.333333 0.333333
		0.333333 0.333333 0.333333
		0.333333 0.333333 0.333333
		0.996546 0.00172712 0.00172712
		0.333333 0.333333 0.333333
		0.333333 0.333333 0.333333
		0.333333 0.333333 0.333333
		0.333333 0.333333 0.333333
		0.333333 0.333333 0.333333
		0.333333 0.333333 0.333333
		0.999133 0.000433463 0.000433463
		0.333333 0.333333 0.333333
		0.333333 0.333333 0.333333
		0.998845 0.000577701 0.000577701
		0.996546 0.00172712 0.00172712
		0.333333 0.333333 0.333333
		0.333333 0.333333 0.333333
		0.21056 9.13492e-05 0.789349
		0.666474 0.333333 0.00019279
		0.333333 0.333333 0.333333
		0.333333 0.333333 0.333333
		0.998845 0.000577701 0.000577701
		0.999422 0.000289101 0.000289101
		0.333333 0.333333 0.333333
		0.333333 0.333333 0.333333
		0.333333 0.333333 0.333333
		0.333333 0.333333 0.333333
		0.333333 0.333333 0.333333
		0.333333 0.333333 0.333333
		0.333333 0.333333 0.333333
		0.999566 0.000216873 0.000216873
		0.333333 0.333333 0.333333
		0.333333 0.333333 0.333333
		0.333333 0.333333 0.333333
		0.333333 0.333333 0.333333
		0.333333 0.333333 0.333333
		0.333333 0.333333 0.333333
		0.000133494 0.999733 0.000133494
		6.4288e-05 0.999871 6.4288e-05
		0.333333 0.333333 0.333333
		0.333333 0.333333 0.333333
		0.333333 0.333333 0.333333
		0.333333 0.333333 0.333333
		0.333333 0.333333 0.333333
		0.333333 0.333333 0.333333
		0.998268 0.000865801 0.000865801
		0.333333 0.333333 0.333333
		0.333333 0.333333 0.333333
		0.333333 0.333333 0.333333
		0.333333 0.333333 0.333333
		0.333333 0.333333 0.333333
		0.333333 0.333333 0.333333
		0.333333 0.333333 0.333333
		0.333333 0.333333 0.333333
		0.333333 0.333333 0.333333
		0.333333 0.333333 0.333333
		0.333333 0.333333 0.333333
		0.333333 0.333333 0.333333
		0.998268 0.000865801 0.000865801
		0.333333 0.333333 0.333333
		0.999133 0.000433463 0.000433463
		0.333333 0.333333 0.333333
		0.998268 0.000865801 0.000865801
		0.333333 0.333333 0.333333
		0.399931 0.000346861 0.599723
		0.333333 0.333333 0.333333
		0.0556359 0.944268 9.64227e-05
		0.333333 0.333333 0.333333
		0.996546 0.00172712 0.00172712
		0.333333 0.333333 0.333333
		0.998845 0.000577701 0.000577701
		0.333333 0.333333 0.333333
		0.333333 0.333333 0.333333
		0.333333 0.333333 0.333333
		0.333333 0.333333 0.333333
		0.333333 0.333333 0.333333
		0.333333 0.333333 0.333333
		0.333333 0.333333 0.333333
		0.999133 0.000433463 0.000433463
		0.333333 0.333333 0.333333
		0.333333 0.333333 0.333333
		0.333333 0.333333 0.333333
		0.333333 0.333333 0.333333
		0.333333 0.333333 0.333333
		0.000144613 0.999711 0.000144613
		0.333333 0.333333 0.333333
		3.47186e-05 0.999931 3.47186e-05
		0.333333 0.333333 0.333333
		0.333333 0.333333 0.333333
		0.333333 0.333333 0.333333
		0.333333 0.333333 0.333333
		0.333333 0.333333 0.333333
		0.998268 0.000865801 0.000865801
		0.333333 0.333333 0.333333
		0.333333 0.333333 0.333333
		0.333333 0.333333 0.333333
		0.333333 0.333333 0.333333
		0.333333 0.333333 0.333333
		0.333333 0.333333 0.333333
		0.333333 0.333333 0.333333
		0.333333 0.333333 0.333333
		0.333333 0.333333 0.333333
		0.333333 0.333333 0.333333
		0.333333 0.333333 0.333333
		0.333333 0.333333 0.333333
		0.333333 0.333333 0.333333
		0.333333 0.333333 0.333333
		0.333333 0.333333 0.333333
		0.996546 0.00172712 0.00172712
		0.999133 0.000433463 0.000433463
		0.999133 0.000433463 0.000433463
		0.333333 0.333333 0.333333
		0.333333 0.333333 0.333333
		0.333333 0.333333 0.333333
		0.333333 0.333333 0.333333
		0.000144613 0.000144613 0.999711
		0.000289101 0.999422 0.000289101
		0.000115701 0.999769 0.000115701
		5.26011e-05 0.999895 5.26011e-05
		0.333333 0.333333 0.333333
		0.333333 0.333333 0.333333
		0.333333 0.333333 0.333333
		0.333333 0.333333 0.333333
		0.333333 0.333333 0.333333
		0.333333 0.333333 0.333333
		0.333333 0.333333 0.333333
		0.333333 0.333333 0.333333
		0.333333 0.333333 0.333333
		0.333333 0.333333 0.333333
		0.333333 0.333333 0.333333
		0.333333 0.333333 0.333333
		0.333333 0.333333 0.333333
		0.333333 0.333333 0.333333
		0.333333 0.333333 0.333333
		0.333333 0.333333 0.333333
		0.333333 0.333333 0.333333
		0.333333 0.333333 0.333333
		0.333333 0.333333 0.333333
		0.333333 0.333333 0.333333
		0.333333 0.333333 0.333333
		0.998845 0.000577701 0.000577701
		0.998845 0.000577701 0.000577701
		0.998845 0.000577701 0.000577701
		0.333333 0.333333 0.333333
		0.333333 0.333333 0.333333
		0.333333 0.333333 0.333333
		0.333333 0.333333 0.333333
		0.998845 0.000577701 0.000577701
		0.996546 0.00172712 0.00172712
		0.996546 0.00172712 0.00172712
		0.999566 0.000216873 0.000216873
	</TABLE>
</DEFINITION>
<DEFINITION>
	<FOR>wire_at_v110</FOR>
	<TABLE>
		0.186684 0.813316
	</TABLE>
</DEFINITION>
<DEFINITION>
	<FOR>wire_at_v11t</FOR>
	<GIVEN>wire_at_v110</GIVEN>
	<GIVEN>wire_at_v7t</GIVEN>
	<GIVEN>location0</GIVEN>
	<GIVEN>wire_at_v10t</GIVEN>
	<GIVEN>wire_at_v2t</GIVEN>
	<TABLE>
		0.333333 0.333333 0.333333
		0.333333 0.333333 0.333333
		0.996928 0.0015361 0.0015361
		0.333333 0.333333 0.333333
		0.333333 0.333333 0.333333
		0.333333 0.333333 0.333333
		0.999818 9.07523e-05 9.07523e-05
		0.333333 0.333333 0.333333
		0.333333 0.333333 0.333333
		0.333333 0.333333 0.333333
		0.333333 0.333333 0.333333
		0.333333 0.333333 0.333333
		0.333333 0.333333 0.333333
		0.333333 0.333333 0.333333
		0.333333 0.333333 0.333333
		0.333333 0.333333 0.333333
		0.333333 0.333333 0.333333
		0.333333 0.333333 0.333333
		0.333333 0.333333 0.333333
		0.333333 0.333333 0.333333
		0.999559 0.000220313 0.000220313
		0.333333 0.333333 0.333333
		0.333333 0.333333 0.333333
		0.333333 0.333333 0.333333
		0.998973 0.000513611 0.000513611
		0.333333 0.333333 0.333333
		0.333333 0.333333 0.333333
		0.333333 0.333333 0.333333
		0.333333 0.333333 0.333333
		0.996928 0.0015361 0.0015361
		0.333333 0.333333 0.333333
		0.999486 0.000257003 0.000257003
		0.333333 0.333333 0.333333
		0.999743 0.000128551 0.000128551
		0.333333 0.333333 0.333333
		0.333333 0.333333 0.333333
		0.333333 0.333333 0.333333
		0.99846 0.000769823 0.000769823
		0.333333 0.333333 0.333333
		0.333333 0.333333 0.333333
		0.333333 0.333333 0.333333
		0.333333 0.333333 0.333333
		0.333333 0.333333 0.333333
		0.333333 0.333333 0.333333
		0.333333 0.333333 0.333333
		0.333333 0.333333 0.333333
		0.333333 0.333333 0.333333
		0.333333 0.333333 0.333333
		0.333333 0.333333 0.333333
		0.333333 0.333333 0.333333
		0.333333 0.333333 0.333333
		0.333333 0.333333 0.333333
		0.333333 0.333333 0.333333
		0.333333 0.333333 0.333333
		0.333333 0.333333 0.333333
		0.333333 0.333333 0.333333
		0.333333 0.333333 0.333333
		0.999743 0.000128551 0.000128551
		0.333333 0.333333 0.333333
		0.333333 0.333333 0.333333
		0.333333 0.333333 0.333333
		0.333333 0.333333 0.333333
		0.333333 0.333333 0.333333
		0.333333 0.333333 0.333333
		0.333333 0.333333 0.333333
		0.333333 0.333333 0.333333
		0.333333 0.333333 0.333333
		0.333333 0.333333 0.333333
		0.333333 0.333333 0.333333
		0.333333 0.333333 0.333333
		0.333333 0.333333 0.333333
		0.333333 0.333333 0.333333
		0.996928 0.0015361 0.0015361
		0.333333 0.333333 0.333333
		0.333333 0.333333 0.333333
		0.333333 0.333333 0.333333
		0.333333 0.333333 0.333333
		0.333333 0.333333 0.333333
		0.333333 0.333333 0.333333
		0.333333 0.333333 0.333333
		0.333333 0.333333 0.333333
		0.333333 0.333333 0.333333
		0.333333 0.333333 0.333333
		0.333333 0.333333 0.333333
		0.333333 0.333333 0.333333
		0.333333 0.333333 0.333333
		0.333333 0.333333 0.333333
		0.333333 0.333333 0.333333
		0.333333 0.333333 0.333333
		0.333333 0.333333 0.333333
		0.99846 0.000769823 0.000769823
		0.333333 0.333333 0.333333
		0.333333 0.333333 0.333333
		0.333333 0.333333 0.333333
		0.333333 0.333333 0.333333
		0.333333 0.333333 0.333333
		0.333333 0.333333 0.333333
		0.333333 0.333333 0.333333
		0.333333 0.333333 0.333333
		0.999559 0.000220313 0.000220313
		0.333333 0.333333 0.333333
		0.333333 0.333333 0.333333
		0.333333 0.333333 0.333333
		0.333333 0.333333 0.333333
		0.333333 0.333333 0.333333
		0.333333 0.333333 0.333333
		0.333333 0.333333 0.333333
		0.333333 0.333333 0.333333
		0.000308356 0.000308356 0.999383
		0.000769823 0.99846 0.000769823
		0.333333 0.333333 0.333333
		0.333333 0.333333 0.333333
		0.333333 0.333333 0.333333
		0.333333 0.333333 0.333333
		0.999894 5.32056e-05 5.32056e-05
		0.333333 0.333333 0.333333
		0.333333 0.333333 0.333333
		5.93437e-05 5.93437e-05 0.999881
		0.333333 0.333333 0.333333
		0.996928 0.0015361 0.0015361
		0.333333 0.333333 0.333333
		0.998973 0.000513611 0.000513611
		0.333333 0.333333 0.333333
		0.999794 0.000102849 0.000102849
		0.333333 0.333333 0.333333
		0.333333 0.333333 0.333333
		0.000769823 0.000769823 0.99846
		0.333333 0.333333 0.333333
		0.999486 0.000257003 0.000257003
		9.07523e-05 0.999818 9.07523e-05
		0.333333 0.333333 0.333333
		0.333333 0.333333 0.333333
		0.333333 0.333333 0.333333
		0.333333 0.333333 0.333333
		0.333333 0.333333 0.333333
		0.000385356 0.000385356 0.999229
		0.000385356 0.999229 0.000385356
		0.333333 0.333333 0.333333
		0.000102849 0.999794 0.000102849
		4.67574e-05 0.999906 4.67574e-05
		0.333333 0.333333 0.333333
		0.333333 0.333333 0.333333
		0.333333 0.333333 0.333333
		0.333333 0.333333 0.333333
		0.00019279 0.999614 0.00019279
		7.01311e-05 0.99986 7.01311e-05
		0.333333 0.333333 0.333333
		0.333333 0.333333 0.333333
		0.333333 0.333333 0.333333
		0.333333 0.333333 0.333333
		0.333333 0.333333 0.333333
		0.333333 0.333333 0.333333
		0.333333 0.333333 0.333333
		0.333333 0.333333 0.333333
		0.999614 0.00019279 0.00019279
		0.333333 0.333333 0.333333
		0.999763 0.000118666 0.000118666
		0.999886 5.71461e-05 5.71461e-05
		0.333333 0.333333 0.333333
		0.333333 0.333333 0.333333
		0.333333 0.333333 0.333333
		0.333333 0.333333 0.333333
		0.000385356 0.999229 0.000385356
		0.333333 0.333333 0.333333
		0.333333 0.333333 0.333333
		3.08613e-05 0.999938 3.08613e-05
		0.333333 0.333333 0.333333
		0.333333 0.333333 0.333333
		0.333333 0.333333 0.333333
		0.333333 0.333333 0.333333
		0.333333 0.333333 0.333333
		0.333333 0.333333 0.333333
		0.333333 0.333333 0.333333
		0.333333 0.333333 0.333333
		0.333333 0.333333 0.333333
		0.333333 0.333333 0.333333
		0.333333 0.333333 0.333333
		0.333333 0.333333 0.333333
		0.333333 0.333333 0.333333
		0.333333 0.333333 0.333333
		0.333333 0.333333 0.333333
		0.333333 0.333333 0.333333
		0.333333 0.333333 0.333333
		0.333333 0.333333 0.333333
		0.333333 0.333333 0.333333
		0.333333 0.333333 0.333333
		0.333333 0.333333 0.333333
		0.333333 0.333333 0.333333
		0.333333 0.333333 0.333333
		0.99846 0.000769823 0.000769823
		0.333333 0.333333 0.333333
		0.333333 0.333333 0.333333
		0.333333 0.333333 0.333333
		0.333333 0.333333 0.333333
		0.333333 0.333333 0.333333
		0.333333 0.333333 0.333333
		0.333333 0.333333 0.333333
		0.333333 0.333333 0.333333
		0.333333 0.333333 0.333333
		0.333333 0.333333 0.333333
		0.333333 0.333333 0.333333
		0.333333 0.333333 0.333333
		0.333333 0.333333 0.333333
		0.333333 0.333333 0.333333
		0.333333 0.333333 0.333333
		0.333333 0.333333 0.333333
		0.333333 0.333333 0.333333
		0.999794 0.000102849 0.000102849
		0.333333 0.333333 0.333333
		0.333333 0.333333 0.333333
		0.333333 0.333333 0.333333
		0.333333 0.333333 0.333333
		0.333333 0.333333 0.333333
		0.333333 0.333333 0.333333
		0.333333 0.333333 0.333333
		0.333333 0.333333 0.333333
	</TABLE>
</DEFINITION>

</NETWORK>
</BIF>
